{"learner":{"attributes":{"scikit_learn":"{\"_estimator_type\": \"regressor\"}"},"feature_names":[],"feature_types":[],"gradient_booster":{"model":{"gbtree_model_param":{"num_parallel_tree":"1","num_trees":"350"},"iteration_indptr":[0,1,2,3,4,5,6,7,8,9,10,11,12,13,14,15,16,17,18,19,20,21,22,23,24,25,26,27,28,29,30,31,32,33,34,35,36,37,38,39,40,41,42,43,44,45,46,47,48,49,50,51,52,53,54,55,56,57,58,59,60,61,62,63,64,65,66,67,68,69,70,71,72,73,74,75,76,77,78,79,80,81,82,83,84,85,86,87,88,89,90,91,92,93,94,95,96,97,98,99,100,101,102,103,104,105,106,107,108,109,110,111,112,113,114,115,116,117,118,119,120,121,122,123,124,125,126,127,128,129,130,131,132,133,134,135,136,137,138,139,140,141,142,143,144,145,146,147,148,149,150,151,152,153,154,155,156,157,158,159,160,161,162,163,164,165,166,167,168,169,170,171,172,173,174,175,176,177,178,179,180,181,182,183,184,185,186,187,188,189,190,191,192,193,194,195,196,197,198,199,200,201,202,203,204,205,206,207,208,209,210,211,212,213,214,215,216,217,218,219,220,221,222,223,224,225,226,227,228,229,230,231,232,233,234,235,236,237,238,239,240,241,242,243,244,245,246,247,248,249,250,251,252,253,254,255,256,257,258,259,260,261,262,263,264,265,266,267,268,269,270,271,272,273,274,275,276,277,278,279,280,281,282,283,284,285,286,287,288,289,290,291,292,293,294,295,296,297,298,299,300,301,302,303,304,305,306,307,308,309,310,311,312,313,314,315,316,317,318,319,320,321,322,323,324,325,326,327,328,329,330,331,332,333,334,335,336,337,338,339,340,341,342,343,344,345,346,347,348,349,350],"tree_info":[0,0,0,0,0,0,0,0,0,0,0,0,0,0,0,0,0,0,0,0,0,0,0,0,0,0,0,0,0,0,0,0,0,0,0,0,0,0,0,0,0,0,0,0,0,0,0,0,0,0,0,0,0,0,0,0,0,0,0,0,0,0,0,0,0,0,0,0,0,0,0,0,0,0,0,0,0,0,0,0,0,0,0,0,0,0,0,0,0,0,0,0,0,0,0,0,0,0,0,0,0,0,0,0,0,0,0,0,0,0,0,0,0,0,0,0,0,0,0,0,0,0,0,0,0,0,0,0,0,0,0,0,0,0,0,0,0,0,0,0,0,0,0,0,0,0,0,0,0,0,0,0,0,0,0,0,0,0,0,0,0,0,0,0,0,0,0,0,0,0,0,0,0,0,0,0,0,0,0,0,0,0,0,0,0,0,0,0,0,0,0,0,0,0,0,0,0,0,0,0,0,0,0,0,0,0,0,0,0,0,0,0,0,0,0,0,0,0,0,0,0,0,0,0,0,0,0,0,0,0,0,0,0,0,0,0,0,0,0,0,0,0,0,0,0,0,0,0,0,0,0,0,0,0,0,0,0,0,0,0,0,0,0,0,0,0,0,0,0,0,0,0,0,0,0,0,0,0,0,0,0,0,0,0,0,0,0,0,0,0,0,0,0,0,0,0,0,0,0,0,0,0,0,0,0,0,0,0,0,0,0,0,0,0,0,0,0,0,0,0,0,0,0,0,0,0,0,0,0,0,0,0,0,0,0,0,0,0,0,0,0,0,0,0,0,0,0,0,0,0],"trees":[{"base_weights":[-5.0073906E3,-1.7828961E5,4.7099803E5,-2.0063786E5,1.9294779E6,3.6694672E5,4.360518E6,-4.074364E5,-3.323575E4,1.5677589E5,7.7315856E5,3.3430566E5,1.09465945E5,1.6786909E6,2.5313567E5,-4.260793E5,2.1244405E6,3.0758155E6,-5.8581848E4,1.9634664E6,-5.459716E4,9.641462E5,5.2190285E4,5.298357E4,-5.682248E4,-8.927819E3,2.417924E4,6.4910797E4,-1.5701183E3,-7.210025E3,8.562676E4,-1.5054987E3,8.066704E4,9.743028E3,4.913124E4,1.4926515E4,-8.964679E3,1.0049611E4,4.9373805E4,-1.3202166E3,2.9381371E4,5.635502E3,-5.9313003E3],"categories":[],"categories_nodes":[],"categories_segments":[],"categories_sizes":[],"default_left":[0,0,0,0,0,0,0,0,0,0,0,0,0,0,0,0,0,0,0,0,0,0,0,0,0,0,0,0,0,0,0,0,0,0,0,0,0,0,0,0,0,0,0],"id":0,"left_children":[1,3,5,7,9,11,13,15,17,-1,19,21,-1,23,-1,25,27,29,31,33,35,37,39,-1,41,-1,-1,-1,-1,-1,-1,-1,-1,-1,-1,-1,-1,-1,-1,-1,-1,-1,-1],"loss_changes":[2.0274537E14,8.527022E13,2.6388947E14,6.1745893E13,1.2376744E14,1.0484331E14,3.5698872E14,3.857201E13,7.795806E13,0E0,1.6857029E13,1.1313675E14,0E0,2.3730655E13,0E0,2.6875506E13,1.5073129E13,3.468389E13,6.7244516E13,3.8990334E12,3.8025285E12,1.3559497E14,7.395416E13,0E0,5.7062215E11,0E0,0E0,0E0,0E0,0E0,0E0,0E0,0E0,0E0,0E0,0E0,0E0,0E0,0E0,0E0,0E0,0E0,0E0],"parents":[2147483647,0,0,1,1,2,2,3,3,4,4,5,5,6,6,7,7,8,8,10,10,11,11,13,13,15,15,16,16,17,17,18,18,19,19,20,20,21,21,22,22,24,24],"right_children":[2,4,6,8,10,12,14,16,18,-1,20,22,-1,24,-1,26,28,30,32,34,36,38,40,-1,42,-1,-1,-1,-1,-1,-1,-1,-1,-1,-1,-1,-1,-1,-1,-1,-1,-1,-1],"split_conditions":[9.2971494E-4,7.885468E-2,5.8233656E-4,1.2804344E-4,9.985414E-6,5.264224E-3,2.1459064E-5,7.507848E-2,4.2507406E-8,1.5677589E5,2.9936897E-5,3.594381E-6,1.09465945E5,6.167336E-4,2.5313567E5,4.43482E-3,3.0208707E-7,7.826214E-8,4.741501E-2,2.0702493E-7,3.7141644E-6,5.271185E-6,8.0507953E-4,5.298357E4,5.0184044E-5,-8.927819E3,2.417924E4,6.4910797E4,-1.5701183E3,-7.210025E3,8.562676E4,-1.5054987E3,8.066704E4,9.743028E3,4.913124E4,1.4926515E4,-8.964679E3,1.0049611E4,4.9373805E4,-1.3202166E3,2.9381371E4,5.635502E3,-5.9313003E3],"split_indices":[639,982,687,834,258,717,132,578,418,0,807,407,0,702,0,655,256,769,476,1,512,146,987,0,256,0,0,0,0,0,0,0,0,0,0,0,0,0,0,0,0,0,0],"split_type":[0,0,0,0,0,0,0,0,0,0,0,0,0,0,0,0,0,0,0,0,0,0,0,0,0,0,0,0,0,0,0,0,0,0,0,0,0,0,0,0,0,0,0],"sum_hessian":[2.456E3,1.801E3,6.55E2,1.783E3,1.8E1,6.39E2,1.6E1,7.97E2,9.86E2,2E0,1.6E1,6.36E2,3E0,1.3E1,3E0,7.92E2,5E0,7E0,9.79E2,6E0,1E1,1.96E2,4.4E2,8E0,5E0,7.83E2,9E0,3E0,2E0,2E0,5E0,9.76E2,3E0,2E0,4E0,3E0,7E0,1.51E2,4.5E1,4.07E2,3.3E1,2E0,3E0],"tree_param":{"num_deleted":"0","num_feature":"1000","num_nodes":"43","size_leaf_vector":"1"}},{"base_weights":[-1.3616174E4,-1.8445852E5,4.6716616E5,-2.0993422E5,1.8851414E6,4.009629E5,6.396551E6,-3.6700606E5,-4.8393438E3,9.135139E5,1.5468555E5,3.5273797E5,4.1304708E6,2.272169E6,2.2276673E5,-3.843784E5,1.8525841E6,2.3936532E6,-5.8696062E4,1.7639782E6,-1.13348375E5,-9.8713625E4,6.813384E5,1.3580458E5,-4.536898E3,1.6783723E4,5.8955242E4,-7.89502E3,4.5993625E4,6.313766E4,-4.818712E3,9.3312E3,8.1095695E4,-1.8195775E3,5.2689465E4,-4.410307E3,4.458957E4,6.9119946E3,-9.538274E3,1.5185699E4,-6.6448184E3,1.2428842E4,1.180333E5],"categories":[],"categories_nodes":[],"categories_segments":[],"categories_sizes":[],"default_left":[0,0,0,0,0,0,0,0,0,0,0,0,0,0,0,0,0,0,0,0,0,0,0,0,0,0,0,0,0,0,0,0,0,0,0,0,0,0,0,0,0,0,0],"id":1,"left_children":[1,3,5,7,9,11,13,15,17,19,-1,21,23,25,-1,27,29,31,33,35,37,39,41,-1,-1,-1,-1,-1,-1,-1,-1,-1,-1,-1,-1,-1,-1,-1,-1,-1,-1,-1,-1],"loss_changes":[2.0050285E14,9.535257E13,2.4866374E14,5.734027E13,1.1796462E14,1.1257123E14,1.115904E14,3.9580045E13,9.999273E13,1.766614E13,0E0,9.308094E13,9.425558E13,2.3668457E12,0E0,2.8776331E13,2.260521E13,5.2527853E13,6.605559E13,1.0653241E13,1.8333976E12,5.334929E13,1.0983453E14,0E0,0E0,0E0,0E0,0E0,0E0,0E0,0E0,0E0,0E0,0E0,0E0,0E0,0E0,0E0,0E0,0E0,0E0,0E0,0E0],"parents":[2147483647,0,0,1,1,2,2,3,3,4,4,5,5,6,6,7,7,8,8,9,9,11,11,12,12,13,13,15,15,16,16,17,17,18,18,19,19,20,20,21,21,22,22],"right_children":[2,4,6,8,10,12,14,16,18,20,-1,22,24,26,-1,28,30,32,34,36,38,40,42,-1,-1,-1,-1,-1,-1,-1,-1,-1,-1,-1,-1,-1,-1,-1,-1,-1,-1,-1,-1],"split_conditions":[8.95036E-4,7.885468E-2,4.6068418E-4,3.9295256E-4,1.1268286E-3,2.2785673E-3,1.4398746E-4,7.507848E-2,6.727302E-8,1.21541E-5,1.5468555E5,1.05057065E-4,3.7244026E-5,1.0340825E-3,2.2276673E5,2.930909E-2,4.2780925E-7,3.3210263E-6,9.465445E-3,4.740425E-6,1.6631166E-4,2.4396247E-6,9.014532E-3,1.3580458E5,-4.536898E3,1.6783723E4,5.8955242E4,-7.89502E3,4.5993625E4,6.313766E4,-4.818712E3,9.3312E3,8.1095695E4,-1.8195775E3,5.2689465E4,-4.410307E3,4.458957E4,6.9119946E3,-9.538274E3,1.5185699E4,-6.6448184E3,1.2428842E4,1.180333E5],"split_indices":[639,982,277,834,785,618,2,578,679,240,0,434,3,0,0,971,256,885,509,774,514,540,768,0,0,0,0,0,0,0,0,0,0,0,0,0,0,0,0,0,0,0,0],"split_type":[0,0,0,0,0,0,0,0,0,0,0,0,0,0,0,0,0,0,0,0,0,0,0,0,0,0,0,0,0,0,0,0,0,0,0,0,0,0,0,0,0,0,0],"sum_hessian":[2.439E3,1.8E3,6.39E2,1.779E3,2.1E1,6.33E2,6E0,1.007E3,7.72E2,1.9E1,2E0,6.26E2,7E0,4E0,2E0,1E3,7E0,1.6E1,7.56E2,1E1,9E0,2.64E2,3.62E2,4E0,3E0,2E0,2E0,9.97E2,3E0,4E0,3E0,8E0,8E0,7.48E2,8E0,2E0,8E0,4E0,5E0,5.6E1,2.08E2,3.59E2,3E0],"tree_param":{"num_deleted":"0","num_feature":"1000","num_nodes":"43","size_leaf_vector":"1"}},{"base_weights":[-6.5486533E3,-3.4358778E5,1.9912567E5,-3.6228766E5,8.049153E4,1.7290836E5,3.746577E6,-4.5741578E5,1.0051283E5,5.1663028E5,-3.743283E4,7.744476E5,2.2828211E5,-4.738078E5,1.6814806E6,2.9788672E6,5.7920156E3,4.7002475E5,3.7202635E6,-5.3995785E4,1.0185996E5,-1.1545456E4,5.216833E4,-9.826819E3,2.44954E4,6.8493213E3,5.8126793E4,2.4155295E4,7.514027E4,1.05701045E4,-6.3780273E3,3.9960015E3,2.0188113E4,1.3354425E5,1.2213028E4,-2.8870562E3,1.4965139E4],"categories":[],"categories_nodes":[],"categories_segments":[],"categories_sizes":[],"default_left":[0,0,0,0,0,0,0,0,0,0,0,0,0,0,0,0,0,0,0,0,0,0,0,0,0,0,0,0,0,0,0,0,0,0,0,0,0],"id":2,"left_children":[1,3,5,7,-1,9,11,13,15,17,19,21,-1,23,25,27,29,31,33,35,-1,-1,-1,-1,-1,-1,-1,-1,-1,-1,-1,-1,-1,-1,-1,-1,-1],"loss_changes":[1.6810083E14,7.6525706E13,1.3941714E14,4.0373204E13,0E0,1.0817845E14,2.4183818E14,2.7442912E13,4.278724E13,8.3057755E13,7.921688E13,2.3816886E13,0E0,2.3086775E13,8.845304E12,2.353294E12,2.613594E13,8.1566345E13,6.948227E13,6.730547E13,0E0,0E0,0E0,0E0,0E0,0E0,0E0,0E0,0E0,0E0,0E0,0E0,0E0,0E0,0E0,0E0,0E0],"parents":[2147483647,0,0,1,1,2,2,3,3,5,5,6,6,7,7,8,8,9,9,10,10,11,11,13,13,14,14,15,15,16,16,17,17,18,18,19,19],"right_children":[2,4,6,8,-1,10,12,14,16,18,20,22,-1,24,26,28,30,32,34,36,-1,-1,-1,-1,-1,-1,-1,-1,-1,-1,-1,-1,-1,-1,-1,-1,-1],"split_conditions":[1.6787801E-4,5.8047575E-1,4.8788182E-2,1.8315324E-4,8.049153E4,7.903635E-6,4.8270593E-3,2.290647E-1,1.5846058E-7,1.21747966E-4,6.601208E-3,1.0351705E-3,2.2828211E5,1.1590271E-2,1.8593627E-4,3.7749837E-7,1.0490445E-5,9.912125E-3,3.3585998E-4,2.4233379E-4,1.0185996E5,-1.1545456E4,5.216833E4,-9.826819E3,2.44954E4,6.8493213E3,5.8126793E4,2.4155295E4,7.514027E4,1.05701045E4,-6.3780273E3,3.9960015E3,2.0188113E4,1.3354425E5,1.2213028E4,-2.8870562E3,1.4965139E4],"split_indices":[655,834,487,982,0,751,747,400,687,569,343,768,0,439,885,771,476,638,515,694,0,0,0,0,0,0,0,0,0,0,0,0,0,0,0,0,0],"split_type":[0,0,0,0,0,0,0,0,0,0,0,0,0,0,0,0,0,0,0,0,0,0,0,0,0,0,0,0,0,0,0,0,0,0,0,0,0],"sum_hessian":[2.423E3,9.18E2,1.505E3,9.15E2,3E0,1.495E3,1E1,7.59E2,1.56E2,5.67E2,9.28E2,8E0,2E0,7.54E2,5E0,4E0,1.52E2,5.6E2,7E0,9.26E2,2E0,5E0,3E0,7.47E2,7E0,3E0,2E0,2E0,2E0,5.8E1,9.4E1,3.74E2,1.86E2,3E0,4E0,8.33E2,9.3E1],"tree_param":{"num_deleted":"0","num_feature":"1000","num_nodes":"37","size_leaf_vector":"1"}},{"base_weights":[4.711217E3,-1.565678E5,4.7050634E5,-3.3929594E5,1.4208948E5,4.3137594E5,1.6905588E5,-3.6762962E5,7.4126725E5,2.2082302E6,5.4219746E4,8.765362E5,9.816599E4,-3.789769E5,2.179603E6,3.7943485E6,-5.2889227E4,8.837603E5,4.5039E6,8.1531646E3,3.3854632E6,6.646106E5,2.3591412E6,-4.596175E4,2.6721275E6,-8.449475E3,1.8374191E3,6.55873E4,7.066136E3,2.6971002E4,9.3602195E4,3.7739355E4,-8.397346E3,8.3282805E4,1.6860469E2,3.6498227E4,9.8910664E4,-6.4500464E2,5.2105523E4,1.583181E5,-3.9815015E3,2.7968414E4,4.3161973E3,-3.2760671E3,8.94139E4,-3.8636643E3,2.5694268E4,1.193422E4,1.4138822E5],"categories":[],"categories_nodes":[],"categories_segments":[],"categories_sizes":[],"default_left":[0,0,0,0,0,0,0,0,0,0,0,0,0,0,0,0,0,0,0,0,0,0,0,0,0,0,0,0,0,0,0,0,0,0,0,0,0,0,0,0,0,0,0,0,0,0,0,0,0],"id":3,"left_children":[1,3,5,7,9,11,-1,13,15,17,19,21,23,25,27,29,31,33,35,37,39,41,43,45,47,-1,-1,-1,-1,-1,-1,-1,-1,-1,-1,-1,-1,-1,-1,-1,-1,-1,-1,-1,-1,-1,-1,-1,-1],"loss_changes":[1.8284786E14,9.871636E13,1.9188481E14,3.4624013E13,1.2460599E14,9.247301E13,0E0,3.2447186E13,7.051479E13,8.115492E13,1.0125535E14,8.232399E13,1.3293338E14,2.2362469E13,8.883834E12,6.6870124E12,1.7877514E13,5.452179E13,2.8061404E12,6.8500073E13,1.4773174E14,7.709182E13,1.7653431E14,6.6855524E13,1.691793E14,0E0,0E0,0E0,0E0,0E0,0E0,0E0,0E0,0E0,0E0,0E0,0E0,0E0,0E0,0E0,0E0,0E0,0E0,0E0,0E0,0E0,0E0,0E0,0E0],"parents":[2147483647,0,0,1,1,2,2,3,3,4,4,5,5,7,7,8,8,9,9,10,10,11,11,12,12,13,13,14,14,15,15,16,16,17,17,18,18,19,19,20,20,21,21,22,22,23,23,24,24],"right_children":[2,4,6,8,10,12,-1,14,16,18,20,22,24,26,28,30,32,34,36,38,40,42,44,46,48,-1,-1,-1,-1,-1,-1,-1,-1,-1,-1,-1,-1,-1,-1,-1,-1,-1,-1,-1,-1,-1,-1,-1,-1],"split_conditions":[9.2971494E-4,6.4561097E-4,2.0589145E-4,7.26921E-3,2.220224E-7,2.6045218E-5,1.6905588E5,2.930909E-2,2.184715E-6,1.1380365E-6,4.051627E-3,1.8062951E-6,1.5149738E-2,2.423076E-3,1.3593778E-5,6.957371E-7,2.2612053E-6,2.0143813E-7,9.811746E-7,9.994778E-4,2.095218E-5,1.5201003E-6,1.1697449E-5,1.4206006E-4,7.685064E-4,-8.449475E3,1.8374191E3,6.55873E4,7.066136E3,2.6971002E4,9.3602195E4,3.7739355E4,-8.397346E3,8.3282805E4,1.6860469E2,3.6498227E4,9.8910664E4,-6.4500464E2,5.2105523E4,1.583181E5,-3.9815015E3,2.7968414E4,4.3161973E3,-3.2760671E3,8.94139E4,-3.8636643E3,2.5694268E4,1.193422E4,1.4138822E5],"split_indices":[639,834,85,552,920,919,0,971,71,273,531,133,982,697,1,256,207,443,890,201,5,5,919,297,631,0,0,0,0,0,0,0,0,0,0,0,0,0,0,0,0,0,0,0,0,0,0,0,0],"split_type":[0,0,0,0,0,0,0,0,0,0,0,0,0,0,0,0,0,0,0,0,0,0,0,0,0,0,0,0,0,0,0,0,0,0,0,0,0,0,0,0,0,0,0,0,0,0,0,0,0],"sum_hessian":[2.432E3,1.807E3,6.25E2,1.121E3,6.86E2,6.23E2,2E0,1.093E3,2.8E1,2.7E1,6.59E2,2.66E2,3.57E2,1.089E3,4E0,5E0,2.3E1,1.8E1,9E0,6.51E2,8E0,2.34E2,3.2E1,3.39E2,1.8E1,9.97E2,9.2E1,2E0,2E0,2E0,3E0,3E0,2E1,3E0,1.5E1,2E0,7E0,6.42E2,9E0,3E0,5E0,8.8E1,1.46E2,1.5E1,1.7E1,3.06E2,3.3E1,1.3E1,5E0],"tree_param":{"num_deleted":"0","num_feature":"1000","num_nodes":"49","size_leaf_vector":"1"}},{"base_weights":[6.5412764E3,-1.928028E5,3.4804597E5,-3.545178E5,2.391496E5,1.6710643E4,6.9976794E5,-3.65767E5,5.7846355E4,1.8751789E5,1.1175569E5,-3.4038156E4,1.17734125E5,3.8716055E6,6.089909E5,-3.869309E5,8.207698E5,3.2606072E6,1.12107125E5,-7.324069E4,3.571562E6,4.5658625E5,1.10440836E5,4.937266E5,2.442691E6,-7.9830903E3,3.1714092E4,5.5385105E4,-1.4179835E4,-3.4623312E2,9.335805E4,6.392924E2,5.5350062E4,2.291737E4,-3.911194E3,-4.16107E3,1.23213125E5,-6.771943E3,2.1991484E4,2.8140166E4,6.148527E3,9.910896E4,8.743134E3],"categories":[],"categories_nodes":[],"categories_segments":[],"categories_sizes":[],"default_left":[0,0,0,0,0,0,0,0,0,0,0,0,0,0,0,0,0,0,0,0,0,0,0,0,0,0,0,0,0,0,0,0,0,0,0,0,0,0,0,0,0,0,0],"id":4,"left_children":[1,3,5,7,9,11,13,15,-1,17,-1,19,-1,21,23,25,27,29,31,33,35,37,-1,39,41,-1,-1,-1,-1,-1,-1,-1,-1,-1,-1,-1,-1,-1,-1,-1,-1,-1,-1],"loss_changes":[1.6678754E14,1.0814768E14,1.0522204E14,4.2184196E13,1.1549137E14,1.3901955E14,1.2375564E14,2.8518113E13,0E0,9.6735204E13,0E0,6.5706008E13,0E0,6.5113986E13,8.904474E13,2.725338E13,6.1577743E13,4.621081E13,8.716367E13,6.8670278E13,5.021066E13,2.92878E12,0E0,6.8135747E13,1.2381921E14,0E0,0E0,0E0,0E0,0E0,0E0,0E0,0E0,0E0,0E0,0E0,0E0,0E0,0E0,0E0,0E0,0E0,0E0],"parents":[2147483647,0,0,1,1,2,2,3,3,4,4,5,5,6,6,7,7,9,9,11,11,13,13,14,14,15,15,16,16,17,17,18,18,19,19,20,20,21,21,23,23,24,24],"right_children":[2,4,6,8,10,12,14,16,-1,18,-1,20,-1,22,24,26,28,30,32,34,36,38,-1,40,42,-1,-1,-1,-1,-1,-1,-1,-1,-1,-1,-1,-1,-1,-1,-1,-1,-1,-1],"split_conditions":[1.2785422E-3,8.037136E-4,1.6208162E-4,2.930909E-2,2.5652308E-4,4.7328636E-2,3.1982631E-6,7.26921E-3,5.7846355E4,2.7495258E-7,1.1175569E5,1.2905925E-2,1.17734125E5,5.164024E-5,1.05146595E-4,1.9905593E-1,2.3951846E-4,8.061607E-7,3.2995187E-3,1.7282741E-7,5.428078E-5,3.1142196E-7,1.10440836E5,9.7268006E-5,4.3770266E-4,-7.9830903E3,3.1714092E4,5.5385105E4,-1.4179835E4,-3.4623312E2,9.335805E4,6.392924E2,5.5350062E4,2.291737E4,-3.911194E3,-4.16107E3,1.23213125E5,-6.771943E3,2.1991484E4,2.8140166E4,6.148527E3,9.910896E4,8.743134E3],"split_indices":[655,834,434,971,137,424,854,552,0,680,0,511,0,559,9,578,542,522,531,28,256,0,0,399,575,0,0,0,0,0,0,0,0,0,0,0,0,0,0,0,0,0,0],"split_type":[0,0,0,0,0,0,0,0,0,0,0,0,0,0,0,0,0,0,0,0,0,0,0,0,0,0,0,0,0,0,0,0,0,0,0,0,0,0,0,0,0,0,0],"sum_hessian":[2.448E3,1.546E3,9.02E2,1.125E3,4.21E2,4.65E2,4.37E2,1.122E3,3E0,4.18E2,3E0,4.62E2,3E0,1.1E1,4.26E2,1.103E3,1.9E1,9E0,4.09E2,4.58E2,4E0,4E0,7E0,4.02E2,2.4E1,1.097E3,6E0,8E0,1.1E1,3E0,6E0,3.98E2,1.1E1,4.1E1,4.17E2,2E0,2E0,2E0,2E0,6.7E1,3.35E2,1E1,1.4E1],"tree_param":{"num_deleted":"0","num_feature":"1000","num_nodes":"43","size_leaf_vector":"1"}},{"base_weights":[5.39291E3,-2.0117452E5,3.582252E5,-3.293657E5,2.9011894E5,3.3318034E5,1.1782468E5,-3.4578244E5,1.353437E6,2.2635773E5,1.3861692E5,-1.4100917E4,7.0284775E5,-2.1267525E5,-5.184681E5,2.5575478E6,-2.7693166E5,9.315536E4,1.5484523E5,-6.3331277E4,4.517912E6,1.0877933E5,6.462737E5,-5.0277944E3,3.3216215E4,-1.0662662E4,3.0572098E4,6.427957E4,1.2219611E4,3.2714648E3,-1.0761549E4,1.1335128E3,6.928998E4,-2.0505303E3,7.047882E4,-9.323168E3,1.5992023E5,1.00309086E5,1.1664376E4],"categories":[],"categories_nodes":[],"categories_segments":[],"categories_sizes":[],"default_left":[0,0,0,0,0,0,0,0,0,0,0,0,0,0,0,0,0,0,0,0,0,0,0,0,0,0,0,0,0,0,0,0,0,0,0,0,0,0,0],"id":5,"left_children":[1,3,5,7,9,11,-1,13,15,17,-1,19,21,23,25,27,29,-1,31,33,35,-1,37,-1,-1,-1,-1,-1,-1,-1,-1,-1,-1,-1,-1,-1,-1,-1,-1],"loss_changes":[1.7783532E14,9.702099E13,1.2289167E14,3.4199533E13,1.3350238E14,1.1529386E14,0E0,2.7702438E13,2.4266005E13,9.973645E13,0E0,1.0381039E14,1.1303958E14,5.010128E13,1.6605719E13,6.9808276E12,7.782311E11,0E0,1.0149965E14,6.5039147E13,9.04029E13,0E0,1.15814515E14,0E0,0E0,0E0,0E0,0E0,0E0,0E0,0E0,0E0,0E0,0E0,0E0,0E0,0E0,0E0,0E0],"parents":[2147483647,0,0,1,1,2,2,3,3,4,4,5,5,7,7,8,8,9,9,11,11,12,12,13,13,14,14,15,15,16,16,18,18,19,19,20,20,22,22],"right_children":[2,4,6,8,10,12,-1,14,16,18,-1,20,22,24,26,28,30,-1,32,34,36,-1,38,-1,-1,-1,-1,-1,-1,-1,-1,-1,-1,-1,-1,-1,-1,-1,-1],"split_conditions":[1.2785422E-3,5.601434E-4,6.2268815E-4,5.0501194E-2,7.519122E-2,1.6208162E-4,1.1782468E5,9.614921E-6,1.0914836E-6,3.2072652E-8,1.3861692E5,4.7328636E-2,4.589328E-6,1.1415995E-3,1.526962E-1,9.0001315E-2,2.5727567E-3,9.315536E4,4.008589E-2,1.2905925E-2,1.13000024E-4,1.0877933E5,7.632356E-6,-5.0277944E3,3.3216215E4,-1.0662662E4,3.0572098E4,6.427957E4,1.2219611E4,3.2714648E3,-1.0761549E4,1.1335128E3,6.928998E4,-2.0505303E3,7.047882E4,-9.323168E3,1.5992023E5,1.00309086E5,1.1664376E4],"split_indices":[655,869,277,578,922,434,0,686,460,124,0,424,568,778,722,601,775,0,487,511,768,0,502,0,0,0,0,0,0,0,0,0,0,0,0,0,0,0,0],"split_type":[0,0,0,0,0,0,0,0,0,0,0,0,0,0,0,0,0,0,0,0,0,0,0,0,0,0,0,0,0,0,0,0,0,0,0,0,0,0,0],"sum_hessian":[2.438E3,1.538E3,9E2,1.22E3,3.18E2,8.97E2,3E0,1.209E3,1.1E1,3.16E2,2E0,4.63E2,4.34E2,6.84E2,5.25E2,6E0,5E0,4E0,3.12E2,4.59E2,4E0,4E0,4.3E2,6.71E2,1.3E1,5.22E2,3E0,4E0,2E0,2E0,3E0,3.04E2,8E0,4.55E2,4E0,2E0,2E0,5E0,4.25E2],"tree_param":{"num_deleted":"0","num_feature":"1000","num_nodes":"39","size_leaf_vector":"1"}},{"base_weights":[9.204132E3,-1.513099E5,4.4930916E5,-1.7392633E5,1.8532851E6,3.4460666E5,4.1122018E6,-1.8770212E5,2.0410034E6,1.4875967E5,8.195416E5,3.1302347E5,1.0481412E5,1.7370952E6,2.3981602E5,-2.0040619E5,2.0504665E6,3.206254E5,9.9430164E4,1.9530392E6,-7.932409E4,-2.6904228E5,5.1632638E5,5.7984277E4,-5.2139287E3,-7.3641196E3,-1.236469E3,8.561997E4,-3.0010918E3,3.0946469E4,-6.923224E3,9.257266E3,4.7452414E4,1.6346576E4,-7.3878916E3,4.2571535E4,-7.156528E3,6.2598527E4,8.4574795E3,8.68966E3,-5.359786E3],"categories":[],"categories_nodes":[],"categories_segments":[],"categories_sizes":[],"default_left":[0,0,0,0,0,0,0,0,0,0,0,0,0,0,0,0,0,0,0,0,0,0,0,0,0,0,0,0,0,0,0,0,0,0,0,0,0,0,0,0,0],"id":6,"left_children":[1,3,5,7,9,11,13,15,17,-1,19,21,-1,23,-1,25,27,29,-1,31,33,35,37,-1,39,-1,-1,-1,-1,-1,-1,-1,-1,-1,-1,-1,-1,-1,-1,-1,-1],"loss_changes":[1.7208379E14,8.124845E13,2.4825052E14,5.426805E13,1.0936719E14,9.639783E13,3.159961E14,5.034071E13,5.3863344E13,0E0,1.8494442E13,7.480872E13,0E0,3.0386676E13,0E0,4.0602247E13,4.972571E13,7.0791903E12,0E0,3.9038023E12,3.1629351E12,3.5672413E13,1.129841E14,0E0,9.252277E11,0E0,0E0,0E0,0E0,0E0,0E0,0E0,0E0,0E0,0E0,0E0,0E0,0E0,0E0,0E0,0E0],"parents":[2147483647,0,0,1,1,2,2,3,3,4,4,5,5,6,6,7,7,8,8,10,10,11,11,13,13,15,15,16,16,17,17,19,19,20,20,21,21,22,22,24,24],"right_children":[2,4,6,8,10,12,14,16,18,-1,20,22,-1,24,-1,26,28,30,-1,32,34,36,38,-1,40,-1,-1,-1,-1,-1,-1,-1,-1,-1,-1,-1,-1,-1,-1,-1,-1],"split_conditions":[9.2971494E-4,7.885468E-2,5.8233656E-4,1.3013332E-3,9.985414E-6,5.264224E-3,2.1459064E-5,5.606855E-2,3.5066762E-6,1.4875967E5,2.9936897E-5,1.5324531E-3,1.0481412E5,9.7887016E-5,2.3981602E5,1.4182793E-4,6.463979E-7,6.8583217E-6,9.9430164E4,2.0702493E-7,1.1117561E-6,2.2936117E-8,1.7843964E-3,5.7984277E4,1.6661632E-4,-7.3641196E3,-1.236469E3,8.561997E4,-3.0010918E3,3.0946469E4,-6.923224E3,9.257266E3,4.7452414E4,1.6346576E4,-7.3878916E3,4.2571535E4,-7.156528E3,6.2598527E4,8.4574795E3,8.68966E3,-5.359786E3],"split_indices":[639,982,687,201,258,717,132,823,26,0,807,655,0,471,0,834,58,787,0,1,512,901,655,0,256,0,0,0,0,0,0,0,0,0,0,0,0,0,0,0,0],"split_type":[0,0,0,0,0,0,0,0,0,0,0,0,0,0,0,0,0,0,0,0,0,0,0,0,0,0,0,0,0,0,0,0,0,0,0,0,0,0,0,0,0],"sum_hessian":[2.434E3,1.784E3,6.5E2,1.765E3,1.9E1,6.33E2,1.7E1,1.755E3,1E1,2E0,1.7E1,6.3E2,3E0,1.4E1,3E0,1.746E3,9E0,7E0,3E0,7E0,1E1,1.63E2,4.67E2,8E0,6E0,7.89E2,9.57E2,4E0,5E0,2E0,5E0,2E0,5E0,2E0,8E0,5E0,1.58E2,1.5E1,4.52E2,2E0,4E0],"tree_param":{"num_deleted":"0","num_feature":"1000","num_nodes":"41","size_leaf_vector":"1"}},{"base_weights":[-6.394565E1,-1.568138E5,4.3613066E5,-1.7985675E5,1.8104016E6,3.7246206E5,7.1972055E6,-3.4585094E5,1.7443387E4,8.422105E5,1.4677622E5,3.247692E5,3.701374E6,5.684624E4,2.1209323E5,-3.631671E5,1.7818125E6,3.0843275E6,-1.6696787E4,1.9210672E6,5.2788527E4,2.936885E5,1.0324191E5,1.2911705E5,2.0662097E5,-7.4698403E3,4.411218E4,6.0891582E4,-4.841977E3,-3.1944333E3,9.4659445E4,-8.4123584E2,6.769994E4,9.133835E3,4.666154E4,1.9494553E4,-7.256552E3,1.1106152E4,-3.7961099E3,-1.1022636E4,1.791E4],"categories":[],"categories_nodes":[],"categories_segments":[],"categories_sizes":[],"default_left":[0,0,0,0,0,0,0,0,0,0,0,0,0,0,0,0,0,0,0,0,0,0,0,0,0,0,0,0,0,0,0,0,0,0,0,0,0,0,0,0,0],"id":7,"left_children":[1,3,5,7,9,11,13,15,17,19,-1,21,23,-1,-1,25,27,29,31,33,35,37,-1,-1,39,-1,-1,-1,-1,-1,-1,-1,-1,-1,-1,-1,-1,-1,-1,-1,-1],"loss_changes":[1.678568E14,8.21924E13,2.766932E14,5.8498746E13,1.0622288E14,1.0104283E14,5.8892927E13,3.6384765E13,8.559464E13,1.608038E13,0E0,9.410492E13,8.530208E13,0E0,0E0,2.6364908E13,2.1182913E13,4.8890527E13,6.9946126E13,3.7612002E12,4.9517313E12,8.017439E13,0E0,0E0,3.1035385E12,0E0,0E0,0E0,0E0,0E0,0E0,0E0,0E0,0E0,0E0,0E0,0E0,0E0,0E0,0E0,0E0],"parents":[2147483647,0,0,1,1,2,2,3,3,4,4,5,5,6,6,7,7,8,8,9,9,11,11,12,12,15,15,16,16,17,17,18,18,19,19,20,20,21,21,24,24],"right_children":[2,4,6,8,10,12,14,16,18,20,-1,22,24,-1,-1,26,28,30,32,34,36,38,-1,-1,40,-1,-1,-1,-1,-1,-1,-1,-1,-1,-1,-1,-1,-1,-1,-1,-1],"split_conditions":[9.2971494E-4,7.885468E-2,4.6068418E-4,3.3530025E-4,1.1268286E-3,2.2785673E-3,1.4398746E-4,7.507848E-2,7.942509E-8,2.9936897E-5,1.4677622E5,5.264224E-3,3.7244026E-5,5.684624E4,2.1209323E5,1.9562434E-1,4.2780925E-7,1.1036303E-7,5.606855E-2,2.0702493E-7,2.7432652E-6,8.010878E-5,1.0324191E5,1.2911705E5,1.6877806E-5,-7.4698403E3,4.411218E4,6.0891582E4,-4.841977E3,-3.1944333E3,9.4659445E4,-8.4123584E2,6.769994E4,9.133835E3,4.666154E4,1.9494553E4,-7.256552E3,1.1106152E4,-3.7961099E3,-1.1022636E4,1.791E4],"split_indices":[639,982,277,834,785,618,2,578,488,807,0,717,3,0,0,552,256,256,823,1,779,744,0,0,256,0,0,0,0,0,0,0,0,0,0,0,0,0,0,0,0],"split_type":[0,0,0,0,0,0,0,0,0,0,0,0,0,0,0,0,0,0,0,0,0,0,0,0,0,0,0,0,0,0,0,0,0,0,0,0,0,0,0,0,0],"sum_hessian":[2.453E3,1.805E3,6.48E2,1.785E3,2E1,6.43E2,5E0,9.69E2,8.16E2,1.8E1,2E0,6.35E2,8E0,3E0,2E0,9.62E2,7E0,8E0,8.08E2,7E0,1.1E1,6.32E2,3E0,4E0,4E0,9.59E2,3E0,4E0,3E0,3E0,5E0,8.03E2,5E0,2E0,5E0,3E0,8E0,4.1E2,2.22E2,2E0,2E0],"tree_param":{"num_deleted":"0","num_feature":"1000","num_nodes":"41","size_leaf_vector":"1"}},{"base_weights":[2.6037034E3,-3.0971534E5,1.9297973E5,-3.2652834E5,2.8256398E6,1.684071E5,3.5173142E6,-3.4384794E5,1.2735482E6,7.545033E4,1.8737658E4,2.1619918E6,1.3443425E5,6.96797E5,2.1612856E5,-3.5472694E5,4.390657E4,-3.631966E5,5.965865E4,2.8574162E6,-1.0328436E4,-4.3691906E4,4.1882203E5,-1.1654872E4,4.8838168E4,-7.455126E3,1.8137557E4,-3.889879E2,-1.0604157E4,2.8537322E4,7.7963016E4,-1.6867201E3,5.103884E4,3.0569566E4,5.8844937E3],"categories":[],"categories_nodes":[],"categories_segments":[],"categories_sizes":[],"default_left":[0,0,0,0,0,0,0,0,0,0,0,0,0,0,0,0,0,0,0,0,0,0,0,0,0,0,0,0,0,0,0,0,0,0,0],"id":8,"left_children":[1,3,5,7,9,11,13,15,17,-1,-1,19,21,23,-1,25,-1,27,-1,29,-1,31,33,-1,-1,-1,-1,-1,-1,-1,-1,-1,-1,-1,-1],"loss_changes":[1.4412665E14,4.9314697E13,1.2242927E14,2.5767304E13,5.407695E12,1.0103005E14,2.186199E14,2.5778184E13,2.9061649E13,0E0,0E0,4.8041474E13,7.458526E13,2.1519476E13,0E0,2.0854885E13,0E0,3.341456E11,0E0,2.4214338E13,0E0,9.57957E13,7.794384E13,0E0,0E0,0E0,0E0,0E0,0E0,0E0,0E0,0E0,0E0,0E0,0E0],"parents":[2147483647,0,0,1,1,2,2,3,3,4,4,5,5,6,6,7,7,8,8,11,11,12,12,13,13,15,15,17,17,19,19,21,21,22,22],"right_children":[2,4,6,8,10,12,14,16,18,-1,-1,20,22,24,-1,26,-1,28,-1,30,-1,32,34,-1,-1,-1,-1,-1,-1,-1,-1,-1,-1,-1,-1],"split_conditions":[1.6787801E-4,5.8047575E-1,4.8788182E-2,1.05779655E-2,1.7842782E-6,2.9562907E-8,6.2381183E-3,1.20316915E-1,6.149331E-7,7.545033E4,1.8737658E4,6.92349E-8,1.6208162E-4,1.0351705E-3,2.1612856E5,4.8552393E-3,4.390657E4,1.3401398E-6,5.965865E4,1.6982575E-8,-1.0328436E4,2.6379063E-4,2.680164E-6,-1.1654872E4,4.8838168E4,-7.455126E3,1.8137557E4,-3.889879E2,-1.0604157E4,2.8537322E4,7.7963016E4,-1.6867201E3,5.103884E4,3.0569566E4,5.8844937E3],"split_indices":[655,834,487,578,257,517,513,851,534,0,0,69,434,768,0,552,0,842,0,271,0,274,556,0,0,0,0,0,0,0,0,0,0,0,0],"split_type":[0,0,0,0,0,0,0,0,0,0,0,0,0,0,0,0,0,0,0,0,0,0,0,0,0,0,0,0,0,0,0,0,0,0,0],"sum_hessian":[2.422E3,9.17E2,1.505E3,9.13E2,4E0,1.495E3,1E1,9.04E2,9E0,2E0,2E0,2.4E1,1.471E3,8E0,2E0,9.01E2,3E0,5E0,4E0,1.9E1,5E0,9.05E2,5.66E2,5E0,3E0,8.89E2,1.2E1,2E0,3E0,9E0,1E1,8.92E2,1.3E1,5.6E1,5.1E2],"tree_param":{"num_deleted":"0","num_feature":"1000","num_nodes":"35","size_leaf_vector":"1"}},{"base_weights":[6.861948E3,-1.7389384E5,3.4513756E5,-1.9531462E5,1.9616476E6,3.200102E5,1.1234521E5,-3.3588772E5,4.215865E4,7.112554E5,1.4285858E5,-2.6895084E4,6.879288E5,-3.4721684E5,5.12674E4,2.0220429E6,-3.4331902E4,3.5185727E4,-6.646034E4,1.1367968E6,-1.3972366E5,2.084072E6,5.077477E5,-2.6756394E3,-9.874976E3,1.2508906E3,7.951711E4,-1.4237218E3,8.2888586E4,6.2384805E3,-8.631053E3,1.6864028E3,6.020393E4,-3.6639097E3,5.5198992E4,2.2002719E4,1.1229243E5,7.651956E3,4.5712426E4],"categories":[],"categories_nodes":[],"categories_segments":[],"categories_sizes":[],"default_left":[0,0,0,0,0,0,0,0,0,0,0,0,0,0,0,0,0,0,0,0,0,0,0,0,0,0,0,0,0,0,0,0,0,0,0,0,0,0,0],"id":9,"left_children":[1,3,5,7,9,11,-1,13,15,17,-1,19,21,23,-1,25,27,-1,29,31,33,35,37,-1,-1,-1,-1,-1,-1,-1,-1,-1,-1,-1,-1,-1,-1,-1,-1],"loss_changes":[1.5029394E14,7.366656E13,1.1160057E14,5.2991952E13,9.857771E13,1.08889375E14,0E0,3.3637521E13,8.95719E13,1.1527907E13,0E0,5.7929823E13,1.0308708E14,3.102135E13,0E0,8.397818E13,8.807782E13,0E0,1.3779186E12,7.664285E13,5.1179363E13,1.5709341E14,8.100577E13,0E0,0E0,0E0,0E0,0E0,0E0,0E0,0E0,0E0,0E0,0E0,0E0,0E0,0E0,0E0,0E0],"parents":[2147483647,0,0,1,1,2,2,3,3,4,4,5,5,7,7,8,8,9,9,11,11,12,12,13,13,15,15,16,16,18,18,19,19,20,20,21,21,22,22],"right_children":[2,4,6,8,10,12,-1,14,16,18,-1,20,22,24,-1,26,28,-1,30,32,34,36,38,-1,-1,-1,-1,-1,-1,-1,-1,-1,-1,-1,-1,-1,-1,-1,-1],"split_conditions":[1.5324531E-3,7.885468E-2,4.6068418E-4,3.3530025E-4,1.0480869E-3,1.6208162E-4,1.1234521E5,6.1667982E-2,7.35321E-8,1.5686784E-6,1.4285858E5,1.7282741E-7,2.0379575E-6,5.646209E-7,5.12674E4,9.452394E-8,2.5652308E-4,3.5185727E4,3.7141644E-6,3.0468246E-7,1.2905925E-2,4.635858E-6,9.172118E-5,-2.6756394E3,-9.874976E3,1.2508906E3,7.951711E4,-1.4237218E3,8.2888586E4,6.2384805E3,-8.631053E3,1.6864028E3,6.020393E4,-3.6639097E3,5.5198992E4,2.2002719E4,1.1229243E5,7.651956E3,4.5712426E4],"split_indices":[655,982,277,834,785,434,0,546,145,145,0,28,884,581,0,734,137,0,512,940,511,6,9,0,0,0,0,0,0,0,0,0,0,0,0,0,0,0,0],"split_type":[0,0,0,0,0,0,0,0,0,0,0,0,0,0,0,0,0,0,0,0,0,0,0,0,0,0,0,0,0,0,0,0,0,0,0,0,0,0,0],"sum_hessian":[2.456E3,1.601E3,8.55E2,1.586E3,1.5E1,8.52E2,3E0,9.96E2,5.9E2,1.3E1,2E0,4.39E2,4.13E2,9.93E2,3E0,2.1E1,5.69E2,5E0,8E0,3.8E1,4.01E2,4.6E1,3.67E2,4.05E2,5.88E2,1.1E1,1E1,5.65E2,4E0,4E0,4E0,2.5E1,1.3E1,3.96E2,5E0,3.7E1,9E0,3.44E2,2.3E1],"tree_param":{"num_deleted":"0","num_feature":"1000","num_nodes":"39","size_leaf_vector":"1"}},{"base_weights":[4.420656E3,-1.4580931E5,4.2036453E5,-1.6528542E5,1.8001649E6,3.1760884E5,4.2459535E6,-1.761529E5,2.2788252E6,7.9275756E5,1.3145898E5,2.8722197E5,1.0109048E5,1.857341E6,2.3089217E5,-2.3819074E4,-3.4502444E5,1.0514159E5,-1.1190872E4,1.5918796E6,-2.053495E5,7.945189E5,6.5060164E4,2.6838872E6,-1.672199E5,-6.9695674E3,3.3239756E3,-7.5708623E3,2.1164484E4,8.0126665E3,3.7500047E4,-9.219179E3,8.041585E2,6.581703E3,4.466665E4,-3.2708193E3,1.5470893E4,6.8014445E4,3.2784207E4,-1.1444788E3,-4.4295176E3],"categories":[],"categories_nodes":[],"categories_segments":[],"categories_sizes":[],"default_left":[0,0,0,0,0,0,0,0,0,0,0,0,0,0,0,0,0,0,0,0,0,0,0,0,0,0,0,0,0,0,0,0,0,0,0,0,0,0,0,0,0],"id":10,"left_children":[1,3,5,7,9,11,13,15,17,19,-1,21,-1,23,-1,25,27,-1,-1,29,31,33,35,37,39,-1,-1,-1,-1,-1,-1,-1,-1,-1,-1,-1,-1,-1,-1,-1,-1],"loss_changes":[1.537799E14,6.8820773E13,2.5534643E14,4.7972792E13,8.133572E13,9.0238E13,2.7492992E14,4.588492E13,7.056865E13,1.3088642E13,0E0,7.140138E13,0E0,2.387631E13,0E0,5.7985825E13,4.0192245E13,0E0,0E0,2.2842326E12,5.2066855E11,1.2851182E14,7.171298E13,1.9141126E12,1.7165992E10,0E0,0E0,0E0,0E0,0E0,0E0,0E0,0E0,0E0,0E0,0E0,0E0,0E0,0E0,0E0,0E0],"parents":[2147483647,0,0,1,1,2,2,3,3,4,4,5,5,6,6,7,7,8,8,9,9,11,11,13,13,15,15,16,16,19,19,20,20,21,21,22,22,23,23,24,24],"right_children":[2,4,6,8,10,12,14,16,18,20,-1,22,-1,24,-1,26,28,-1,-1,30,32,34,36,38,40,-1,-1,-1,-1,-1,-1,-1,-1,-1,-1,-1,-1,-1,-1,-1,-1],"split_conditions":[9.2971494E-4,7.885468E-2,5.8233656E-4,3.3253264E-2,1.4295273E-5,5.264224E-3,6.2525585E-5,1.5094556E-6,3.7953258E-5,1.0977944E-6,1.3145898E5,3.594381E-6,1.0109048E5,5.369456E-5,2.3089217E5,1.1806275E-5,2.0077096E-2,1.0514159E5,-1.1190872E4,1.9803276E-6,1.3233266E-5,5.271185E-6,7.282909E-6,1.187482E-4,2.4576185E-4,-6.9695674E3,3.3239756E3,-7.5708623E3,2.1164484E4,8.0126665E3,3.7500047E4,-9.219179E3,8.041585E2,6.581703E3,4.466665E4,-3.2708193E3,1.5470893E4,6.8014445E4,3.2784207E4,-1.1444788E3,-4.4295176E3],"split_indices":[639,982,687,840,39,717,366,392,512,33,0,407,0,404,0,869,641,0,0,7,562,146,316,259,768,0,0,0,0,0,0,0,0,0,0,0,0,0,0,0,0],"split_type":[0,0,0,0,0,0,0,0,0,0,0,0,0,0,0,0,0,0,0,0,0,0,0,0,0,0,0,0,0,0,0,0,0,0,0,0,0,0,0,0,0],"sum_hessian":[2.459E3,1.807E3,6.52E2,1.79E3,1.7E1,6.36E2,1.6E1,1.783E3,7E0,1.5E1,2E0,6.33E2,3E0,1.3E1,3E0,9.38E2,8.45E2,3E0,4E0,8E0,7E0,1.92E2,4.41E2,9E0,4E0,3.46E2,5.92E2,8.26E2,1.9E1,2E0,6E0,3E0,4E0,1.46E2,4.6E1,3.34E2,1.07E2,4E0,5E0,2E0,2E0],"tree_param":{"num_deleted":"0","num_feature":"1000","num_nodes":"41","size_leaf_vector":"1"}},{"base_weights":[-9.592237E3,-1.956758E5,3.0897862E5,-3.167425E5,1.4998503E5,2.8578566E5,1.0935086E5,-1.5674131E5,-4.9816253E5,1.03400445E5,1.26535914E5,1.1286281E6,1.6623497E5,-3.0288934E5,3.0349912E5,-5.1534406E5,4.605552E5,2.9236645E6,1.635796E4,9.214915E5,1.0754108E5,9.8206805E4,1.5920985E6,-6.396748E3,4.8274414E4,2.1211333E3,5.5058273E4,-1.0640658E4,8.080266E3,-9.924339E3,2.3622121E4,9.0386875E4,1.1495223E4,-4.1578406E2,9.630544E4,1.381374E3,3.0129059E4,1.162782E3,4.773681E4,1.9222375E4,1.6425006E5],"categories":[],"categories_nodes":[],"categories_segments":[],"categories_sizes":[],"default_left":[0,0,0,0,0,0,0,0,0,0,0,0,0,0,0,0,0,0,0,0,0,0,0,0,0,0,0,0,0,0,0,0,0,0,0,0,0,0,0,0,0],"id":11,"left_children":[1,3,5,7,9,11,-1,13,15,17,-1,19,21,23,25,27,29,31,33,35,-1,37,39,-1,-1,-1,-1,-1,-1,-1,-1,-1,-1,-1,-1,-1,-1,-1,-1,-1,-1],"loss_changes":[1.456541E14,6.4953776E13,1.0683342E14,3.327442E13,1.1530672E14,9.0800835E13,0E0,4.1257036E13,9.099392E12,9.839078E13,0E0,9.3605625E13,7.666675E13,2.2181157E13,7.128357E13,8.331431E12,7.4801155E12,4.2379625E13,6.962386E13,5.374848E13,0E0,6.927837E13,1.4249111E14,0E0,0E0,0E0,0E0,0E0,0E0,0E0,0E0,0E0,0E0,0E0,0E0,0E0,0E0,0E0,0E0,0E0,0E0],"parents":[2147483647,0,0,1,1,2,2,3,3,4,4,5,5,7,7,8,8,9,9,11,11,12,12,13,13,14,14,15,15,16,16,17,17,18,18,19,19,21,21,22,22],"right_children":[2,4,6,8,10,12,-1,14,16,18,-1,20,22,24,26,28,30,32,34,36,-1,38,40,-1,-1,-1,-1,-1,-1,-1,-1,-1,-1,-1,-1,-1,-1,-1,-1,-1,-1],"split_conditions":[1.2785422E-3,8.037136E-4,6.2268815E-4,1.5094556E-6,7.519122E-2,5.444648E-6,1.0935086E5,9.072831E-5,4.416768E-3,6.727302E-8,1.26535914E5,1.023935E-6,1.05146595E-4,3.2126047E-2,2.025525E-6,1.6617621E-1,4.565565E-5,2.610564E-6,1.6053725E-2,9.724278E-7,1.0754108E5,1.6673382E-2,5.5805E-4,-6.396748E3,4.8274414E4,2.1211333E3,5.5058273E4,-1.0640658E4,8.080266E3,-9.924339E3,2.3622121E4,9.0386875E4,1.1495223E4,-4.1578406E2,9.630544E4,1.381374E3,3.0129059E4,1.162782E3,4.773681E4,1.9222375E4,1.6425006E5],"split_indices":[655,834,277,392,922,491,0,775,423,679,0,141,9,851,110,922,14,781,415,34,0,902,897,0,0,0,0,0,0,0,0,0,0,0,0,0,0,0,0,0,0],"split_type":[0,0,0,0,0,0,0,0,0,0,0,0,0,0,0,0,0,0,0,0,0,0,0,0,0,0,0,0,0,0,0,0,0,0,0,0,0,0,0,0,0],"sum_hessian":[2.455E3,1.55E3,9.05E2,1.148E3,4.02E2,9.02E2,3E0,6.11E2,5.37E2,4E2,2E0,1.11E2,7.91E2,4.64E2,1.47E2,5.28E2,9E0,1.1E1,3.89E2,1.07E2,4E0,7.56E2,3.5E1,4.62E2,2E0,1.37E2,1E1,5.19E2,9E0,4E0,5E0,6E0,5E0,3.87E2,2E0,4.4E1,6.3E1,7.44E2,1.2E1,3.3E1,2E0],"tree_param":{"num_deleted":"0","num_feature":"1000","num_nodes":"41","size_leaf_vector":"1"}},{"base_weights":[-1.6233915E4,-1.4964539E5,3.617908E5,-1.6748364E5,1.852016E6,2.5783898E5,3.7239192E6,-1.7943925E5,1.9749718E6,1.3644158E5,1.8030319E5,2.2672058E5,9.955668E4,1.5970208E6,2.2601067E5,-3.4236066E5,-4.7927543E4,8.256718E4,-1.486798E5,2.2366564E4,-1.0915069E4,4.923689E5,-1.8197714E5,5.7611918E4,2.786181E5,-7.2672925E3,4.1419945E4,5.820007E4,-1.5025314E3,9.605365E3,-1.1664417E4,-6.105837E3,1.3950239E4,-4.736152E3,8.56679E4,-5.352157E3,2.056605E4],"categories":[],"categories_nodes":[],"categories_segments":[],"categories_sizes":[],"default_left":[0,0,0,0,0,0,0,0,0,0,0,0,0,0,0,0,0,0,0,0,0,0,0,0,0,0,0,0,0,0,0,0,0,0,0,0,0],"id":12,"left_children":[1,3,5,7,9,11,13,15,17,-1,19,21,-1,23,-1,25,27,-1,29,-1,-1,31,33,-1,35,-1,-1,-1,-1,-1,-1,-1,-1,-1,-1,-1,-1],"loss_changes":[1.22958975E14,6.4652617E13,2.2132146E14,4.612725E13,1.3170625E14,8.964247E13,2.8813194E14,3.807915E13,4.6344253E13,0E0,9.464104E12,6.686007E13,0E0,2.627372E13,0E0,4.1000504E13,7.946469E13,0E0,1.9199251E12,0E0,0E0,6.124865E13,6.0510066E13,0E0,3.960656E12,0E0,0E0,0E0,0E0,0E0,0E0,0E0,0E0,0E0,0E0,0E0,0E0],"parents":[2147483647,0,0,1,1,2,2,3,3,4,4,5,5,6,6,7,7,8,8,10,10,11,11,13,13,15,15,16,16,18,18,21,21,22,22,24,24],"right_children":[2,4,6,8,10,12,14,16,18,-1,20,22,-1,24,-1,26,28,-1,30,-1,-1,32,34,-1,36,-1,-1,-1,-1,-1,-1,-1,-1,-1,-1,-1,-1],"split_conditions":[9.2971494E-4,3.3094052E-2,5.8233656E-4,5.606855E-2,2.6296993E-7,1.7463076E-3,2.1459064E-5,1.2804344E-4,6.463979E-7,1.3644158E5,1.6099309E-4,4.9654187E-5,9.955668E4,6.4640044E-6,2.2601067E5,7.507848E-2,7.942509E-8,8.256718E4,2.562782E-6,2.2366564E4,-1.0915069E4,1.2785422E-3,3.398385E-3,5.7611918E4,2.0322477E-4,-7.2672925E3,4.1419945E4,5.820007E4,-1.5025314E3,9.605365E3,-1.1664417E4,-6.105837E3,1.3950239E4,-4.736152E3,8.56679E4,-5.352157E3,2.056605E4],"split_indices":[639,593,687,823,992,864,132,834,58,0,614,812,0,864,0,578,488,0,14,0,0,655,358,0,777,0,0,0,0,0,0,0,0,0,0,0,0],"split_type":[0,0,0,0,0,0,0,0,0,0,0,0,0,0,0,0,0,0,0,0,0,0,0,0,0,0,0,0,0,0,0,0,0,0,0,0,0],"sum_hessian":[2.436E3,1.801E3,6.35E2,1.786E3,1.5E1,6.17E2,1.8E1,1.777E3,9E0,3E0,1.2E1,6.14E2,3E0,1.5E1,3E0,7.93E2,9.84E2,4E0,5E0,5E0,7E0,3.72E2,2.42E2,7E0,8E0,7.87E2,6E0,8E0,9.76E2,2E0,3E0,7.6E1,2.96E2,2.4E2,2E0,5E0,3E0],"tree_param":{"num_deleted":"0","num_feature":"1000","num_nodes":"37","size_leaf_vector":"1"}},{"base_weights":[-2.6388806E3,-1.3641252E5,3.9587228E5,-1.5499467E5,1.8664615E6,3.6673194E5,9.554465E4,-1.9143831E5,8.673088E5,4.818873E5,1.2491711E5,3.3076753E5,3.9619922E6,-2.125872E5,1.3498335E6,3.6004822E5,6.679522E6,3.1648594E4,-1.0826464E4,3.0636094E5,1.0333826E5,-1.9681619E3,1.611039E5,-4.551674E3,3.594286E4,9.467954E4,-8.242598E2,2.140497E3,7.6247266E4,2.3032092E4,1.9961864E5,2.9444916E4,4.1211997E3],"categories":[],"categories_nodes":[],"categories_segments":[],"categories_sizes":[],"default_left":[0,0,0,0,0,0,0,0,0,0,0,0,0,0,0,0,0,0,0,0,0,0,0,0,0,0,0,0,0,0,0,0,0],"id":13,"left_children":[1,3,5,7,9,11,-1,13,15,17,-1,19,21,23,25,27,29,-1,-1,31,-1,-1,-1,-1,-1,-1,-1,-1,-1,-1,-1,-1,-1],"loss_changes":[1.310907E14,6.880712E13,7.71508E13,6.815906E13,1.0007133E14,7.820989E13,0E0,5.775407E13,1.8333835E14,1.6621817E13,0E0,7.0417675E13,1.0051296E14,5.285063E13,1.1317514E14,5.1129455E13,7.975553E13,0E0,0E0,7.079576E13,0E0,0E0,0E0,0E0,0E0,0E0,0E0,0E0,0E0,0E0,0E0,0E0,0E0],"parents":[2147483647,0,0,1,1,2,2,3,3,4,4,5,5,7,7,8,8,9,9,11,11,12,12,13,13,14,14,15,15,16,16,19,19],"right_children":[2,4,6,8,10,12,-1,14,16,18,-1,20,22,24,26,28,30,-1,-1,32,-1,-1,-1,-1,-1,-1,-1,-1,-1,-1,-1,-1,-1],"split_conditions":[1.4922955E-3,3.3094052E-2,6.1885067E-3,4.4422038E-4,3.1010716E-4,1.0342331E-2,9.554465E4,1.0742075E-3,2.8787876E-4,2.1284118E-6,1.2491711E5,8.218583E-3,3.8084774E-5,2.5451228E-1,4.7478613E-7,1.6508652E-3,1.3552269E-4,3.1648594E4,-1.0826464E4,1.1478539E-7,1.0333826E5,-1.9681619E3,1.611039E5,-4.551674E3,3.594286E4,9.467954E4,-8.242598E2,2.140497E3,7.6247266E4,2.3032092E4,1.9961864E5,2.9444916E4,4.1211997E3],"split_indices":[578,593,540,381,897,768,0,495,386,25,0,660,769,445,392,825,2,0,0,973,0,0,0,0,0,0,0,0,0,0,0,0,0],"split_type":[0,0,0,0,0,0,0,0,0,0,0,0,0,0,0,0,0,0,0,0,0,0,0,0,0,0,0,0,0,0,0,0,0],"sum_hessian":[2.457E3,1.84E3,6.17E2,1.824E3,1.6E1,6.14E2,3E0,1.762E3,6.2E1,1.3E1,3E0,6.09E2,5E0,1.739E3,2.3E1,5.8E1,4E0,6E0,7E0,6.07E2,2E0,3E0,2E0,1.727E3,1.2E1,6E0,1.7E1,5.5E1,3E0,2E0,2E0,4.7E1,5.6E2],"tree_param":{"num_deleted":"0","num_feature":"1000","num_nodes":"33","size_leaf_vector":"1"}},{"base_weights":[-2.7045085E3,-1.4796562E5,4.010763E5,-1.6736508E5,1.6833705E6,3.030837E5,3.634354E6,-4.1371866E5,-6.99238E4,7.5251975E5,1.2794136E5,2.7330703E5,9.8044875E4,1.5680602E6,2.198188E5,-4.2929472E5,4.6819332E4,3.0149502E6,-9.656714E4,1.9134935E6,-5.4692652E4,6.0977994E5,-4.4277973E4,5.653159E4,2.751476E5,-8.916675E3,2.6209365E4,-3.4205159E3,8.462139E4,-2.244263E3,4.2196375E4,1.6716668E4,4.354782E4,1.4028226E4,-8.518161E3,1.264632E3,2.1220803E4,-2.103527E3,7.7241484E4,-5.2449126E3,2.024901E4],"categories":[],"categories_nodes":[],"categories_segments":[],"categories_sizes":[],"default_left":[0,0,0,0,0,0,0,0,0,0,0,0,0,0,0,0,0,0,0,0,0,0,0,0,0,0,0,0,0,0,0,0,0,0,0,0,0,0,0,0,0],"id":14,"left_children":[1,3,5,7,9,11,13,15,17,19,-1,21,-1,23,-1,25,-1,27,29,31,33,35,37,-1,39,-1,-1,-1,-1,-1,-1,-1,-1,-1,-1,-1,-1,-1,-1,-1,-1],"loss_changes":[1.438781E14,6.437229E13,2.0452597E14,4.2844023E13,7.855331E13,8.507404E13,2.7158206E14,2.2715998E13,1.0557828E14,1.6036247E13,0E0,6.7134294E13,0E0,2.525676E13,0E0,1.5086358E13,0E0,4.3343426E13,4.4113097E13,1.7080464E11,3.3861888E12,7.5156735E13,7.7482745E13,0E0,3.8315046E12,0E0,0E0,0E0,0E0,0E0,0E0,0E0,0E0,0E0,0E0,0E0,0E0,0E0,0E0,0E0,0E0],"parents":[2147483647,0,0,1,1,2,2,3,3,4,4,5,5,6,6,7,7,8,8,9,9,11,11,13,13,15,15,17,17,18,18,19,19,20,20,21,21,22,22,24,24],"right_children":[2,4,6,8,10,12,14,16,18,20,-1,22,-1,24,-1,26,-1,28,30,32,34,36,38,-1,40,-1,-1,-1,-1,-1,-1,-1,-1,-1,-1,-1,-1,-1,-1,-1,-1],"split_conditions":[9.2971494E-4,7.885468E-2,5.8233656E-4,1.0762534E-5,1.4295273E-5,5.264224E-3,2.1459064E-5,4.3958023E-2,1.0809878E-6,2.7828256E-7,1.2794136E5,2.2530734E-5,9.8044875E4,6.4640044E-6,2.198188E5,2.6437765E-2,4.6819332E4,1.2596779E-7,2.0647695E-2,7.479195E-8,3.0471683E-5,7.277597E-3,1.2852628E-2,5.653159E4,2.0322477E-4,-8.916675E3,2.6209365E4,-3.4205159E3,8.462139E4,-2.244263E3,4.2196375E4,1.6716668E4,4.354782E4,1.4028226E4,-8.518161E3,1.264632E3,2.1220803E4,-2.103527E3,7.7241484E4,-5.2449126E3,2.024901E4],"split_indices":[639,982,687,869,39,717,132,650,459,37,0,812,0,864,0,598,0,478,660,1,598,639,708,0,777,0,0,0,0,0,0,0,0,0,0,0,0,0,0,0,0],"split_type":[0,0,0,0,0,0,0,0,0,0,0,0,0,0,0,0,0,0,0,0,0,0,0,0,0,0,0,0,0,0,0,0,0,0,0,0,0,0,0,0,0],"sum_hessian":[2.451E3,1.803E3,6.48E2,1.785E3,1.8E1,6.3E2,1.8E1,5.05E2,1.28E3,1.6E1,2E0,6.27E2,3E0,1.5E1,3E0,5.03E2,2E0,1E1,1.27E3,6E0,1E1,3.04E2,3.23E2,7E0,8E0,4.99E2,4E0,3E0,7E0,1.262E3,8E0,2E0,4E0,3E0,7E0,1.38E2,1.66E2,3.19E2,4E0,5E0,3E0],"tree_param":{"num_deleted":"0","num_feature":"1000","num_nodes":"41","size_leaf_vector":"1"}},{"base_weights":[8.923597E3,-2.2433852E5,2.2879623E5,-3.3744056E5,2.5347203E5,2.1535723E5,1.15311E5,-3.4844088E5,1.8267085E6,1.5834047E5,1.1034944E5,2.0265353E5,1.0882041E5,-3.6045747E5,1.6082541E6,-9.436909E3,7.032719E4,9.358841E5,-2.3932169E5,1.3100101E5,1.026064E6,-7.702041E3,1.0565785E4,3.1652695E3,4.5873668E4,7.3069604E3,6.1051203E4,-6.1984604E3,4.794916E4,2.25668E3,7.164189E4,1.3225401E4,7.834926E4],"categories":[],"categories_nodes":[],"categories_segments":[],"categories_sizes":[],"default_left":[0,0,0,0,0,0,0,0,0,0,0,0,0,0,0,0,0,0,0,0,0,0,0,0,0,0,0,0,0,0,0,0,0],"id":15,"left_children":[1,3,5,7,9,11,-1,13,15,17,-1,19,-1,21,23,-1,-1,25,27,29,31,-1,-1,-1,-1,-1,-1,-1,-1,-1,-1,-1,-1],"loss_changes":[1.2504009E14,6.401644E13,9.214087E13,2.3419156E13,1.1280175E14,8.207818E13,0E0,2.2987412E13,2.107795E13,6.9484715E13,0E0,7.367387E13,0E0,2.0967309E13,5.6001907E12,0E0,0E0,9.06654E13,2.84809E13,7.182168E13,1.0288598E14,0E0,0E0,0E0,0E0,0E0,0E0,0E0,0E0,0E0,0E0,0E0,0E0],"parents":[2147483647,0,0,1,1,2,2,3,3,4,4,5,5,7,7,8,8,9,9,11,11,13,13,14,14,17,17,18,18,19,19,20,20],"right_children":[2,4,6,8,10,12,-1,14,16,18,-1,20,-1,22,24,-1,-1,26,28,30,32,-1,-1,-1,-1,-1,-1,-1,-1,-1,-1,-1,-1],"split_conditions":[3.9295256E-4,8.232576E-4,1.5204892E-2,6.1667982E-2,4.072371E-3,1.1185304E-3,1.15311E5,3.0757296E-1,5.0164637E-9,2.0798345E-6,1.1034944E5,2.5093727E-2,1.0882041E5,4.867324E-2,2.5747674E-8,-9.436909E3,7.032719E4,8.3035525E-7,4.898898E-3,1.523578E-2,6.781033E-5,-7.702041E3,1.0565785E4,3.1652695E3,4.5873668E4,7.3069604E3,6.1051203E4,-6.1984604E3,4.794916E4,2.25668E3,7.164189E4,1.3225401E4,7.834926E4],"split_indices":[834,655,814,546,633,271,0,689,1,695,0,578,0,768,512,0,0,57,736,566,475,0,0,0,0,0,0,0,0,0,0,0,0],"split_type":[0,0,0,0,0,0,0,0,0,0,0,0,0,0,0,0,0,0,0,0,0,0,0,0,0,0,0,0,0,0,0,0,0],"sum_hessian":[2.436E3,1.182E3,1.254E3,9.56E2,2.26E2,1.252E3,2E0,9.52E2,4E0,2.23E2,3E0,1.25E3,2E0,9.47E2,5E0,2E0,2E0,7.5E1,1.48E2,1.151E3,9.9E1,9.22E2,2.5E1,2E0,3E0,6E1,1.5E1,1.45E2,3E0,1.146E3,5E0,8.9E1,1E1],"tree_param":{"num_deleted":"0","num_feature":"1000","num_nodes":"33","size_leaf_vector":"1"}},{"base_weights":[1.4197725E3,-2.8404584E5,1.7601498E5,-2.9920053E5,2.6006232E6,2.0415482E6,1.44971E5,-3.397217E5,3.666852E5,7.026093E4,1.642651E4,2.715655E6,-1.0914652E4,1.2319961E5,2.6392032E6,-2.0895694E5,-5.2538675E5,-4.0459418E4,1.5328455E6,1.3249666E6,7.466079E4,3.7409977E4,5.765019E5,-4.3436637E4,1.7372003E5,-5.5756763E3,1.0623925E4,-1.0867313E4,1.2698406E4,-7.117889E3,2.2412625E4,6.4479113E4,-2.7696338E3,3.4609984E4,-3.9621858E3,-8.2133704E2,1.4993605E4,3.2889164E4,3.484789E3,-1.3550265E4,3.323826E4],"categories":[],"categories_nodes":[],"categories_segments":[],"categories_sizes":[],"default_left":[0,0,0,0,0,0,0,0,0,0,0,0,0,0,0,0,0,0,0,0,0,0,0,0,0,0,0,0,0,0,0,0,0,0,0,0,0,0,0,0,0],"id":16,"left_children":[1,3,5,7,9,11,13,15,17,-1,-1,19,-1,21,23,25,27,29,31,33,-1,35,37,39,-1,-1,-1,-1,-1,-1,-1,-1,-1,-1,-1,-1,-1,-1,-1,-1,-1],"loss_changes":[1.23057415E14,4.174017E13,8.842768E13,2.5299203E13,5.2320105E12,4.5084616E13,8.156361E13,2.1255248E13,2.5700996E13,0E0,0E0,2.335115E13,0E0,5.8155837E13,2.1125528E14,2.6919668E13,7.9175793E12,1.5415024E13,4.0016047E13,6.5193986E12,0E0,7.040476E13,1.0195798E14,1.1939192E13,0E0,0E0,0E0,0E0,0E0,0E0,0E0,0E0,0E0,0E0,0E0,0E0,0E0,0E0,0E0,0E0,0E0],"parents":[2147483647,0,0,1,1,2,2,3,3,4,4,5,5,6,6,7,7,8,8,11,11,13,13,14,14,15,15,16,16,17,17,18,18,19,19,21,21,22,22,23,23],"right_children":[2,4,6,8,10,12,14,16,18,-1,-1,20,-1,22,24,26,28,30,32,34,-1,36,38,40,-1,-1,-1,-1,-1,-1,-1,-1,-1,-1,-1,-1,-1,-1,-1,-1,-1],"split_conditions":[1.6787801E-4,5.8047575E-1,2.9562907E-8,1.3524011E-3,1.7842782E-6,6.92349E-8,4.8788182E-2,8.348658E-6,3.1710166E-4,7.026093E4,1.642651E4,1.6982575E-8,-1.0914652E4,8.210144E-3,6.935264E-3,2.6074753E-4,2.134915E-2,3.5628957E-5,2.7968823E-5,1.0704789E-6,7.466079E4,1.5641017E-4,2.3128746E-6,2.0833351E-4,1.7372003E5,-5.5756763E3,1.0623925E4,-1.0867313E4,1.2698406E4,-7.117889E3,2.2412625E4,6.4479113E4,-2.7696338E3,3.4609984E4,-3.9621858E3,-8.2133704E2,1.4993605E4,3.2889164E4,3.484789E3,-1.3550265E4,3.323826E4],"split_indices":[655,834,517,439,257,69,487,686,916,0,0,271,0,639,400,452,667,972,724,516,0,694,884,259,0,0,0,0,0,0,0,0,0,0,0,0,0,0,0,0,0],"split_type":[0,0,0,0,0,0,0,0,0,0,0,0,0,0,0,0,0,0,0,0,0,0,0,0,0,0,0,0,0,0,0,0,0,0,0,0,0,0,0,0,0],"sum_hessian":[2.467E3,9.36E2,1.531E3,9.32E2,4E0,2.4E1,1.507E3,8.79E2,5.3E1,2E0,2E0,1.9E1,5E0,1.495E3,1.2E1,5.17E2,3.62E2,4E1,1.3E1,9E0,1E1,1.258E3,2.37E2,9E0,3E0,4.73E2,4.4E1,3.57E2,5E0,3.2E1,8E0,6E0,7E0,7E0,2E0,1.134E3,1.24E2,6.4E1,1.73E2,7E0,2E0],"tree_param":{"num_deleted":"0","num_feature":"1000","num_nodes":"41","size_leaf_vector":"1"}},{"base_weights":[5.6226E3,-1.2885415E5,3.7578653E5,-1.5075494E5,1.7252906E6,3.291356E5,1.5678578E5,-1.6177958E5,2.026826E6,8.382106E5,1.3536734E5,2.5646653E5,3.1835345E6,-1.7208288E5,1.8664838E6,8.0889234E4,-3.9617494E5,1.487907E6,-2.4111027E5,2.3061602E5,1.1216411E5,1.6411231E5,1.3933918E6,-3.6913628E3,2.7892494E4,-1.1972453E4,1.01950445E5,-2.8124788E3,-1.0393353E4,-4.4609023E3,3.704804E4,-1.1027318E4,1.1063264E3,1.2151993E4,-1.5540009E3,-4.1892188E3,4.2580883E4],"categories":[],"categories_nodes":[],"categories_segments":[],"categories_sizes":[],"default_left":[0,0,0,0,0,0,0,0,0,0,0,0,0,0,0,0,0,0,0,0,0,0,0,0,0,0,0,0,0,0,0,0,0,0,0,0,0],"id":17,"left_children":[1,3,5,7,9,11,-1,13,15,17,-1,19,21,23,25,-1,27,29,31,33,-1,-1,35,-1,-1,-1,-1,-1,-1,-1,-1,-1,-1,-1,-1,-1,-1],"loss_changes":[1.2160738E14,7.302824E13,2.2408448E14,4.2868404E13,8.827254E13,1.3359591E14,0E0,3.7184917E13,4.560091E13,1.3682137E13,0E0,8.6279216E13,1.32410235E14,3.4606116E13,7.473518E13,0E0,8.47157E10,7.8967713E12,7.662438E11,7.338842E13,0E0,0E0,1.5774805E13,0E0,0E0,0E0,0E0,0E0,0E0,0E0,0E0,0E0,0E0,0E0,0E0,0E0,0E0],"parents":[2147483647,0,0,1,1,2,2,3,3,4,4,5,5,7,7,8,8,9,9,11,11,12,12,13,13,14,14,16,16,17,17,18,18,19,19,22,22],"right_children":[2,4,6,8,10,12,-1,14,16,18,-1,20,22,24,26,-1,28,30,32,34,-1,-1,36,-1,-1,-1,-1,-1,-1,-1,-1,-1,-1,-1,-1,-1,-1],"split_conditions":[9.2971494E-4,7.885468E-2,2.66154E-4,5.606855E-2,1.0480869E-3,5.8233656E-4,1.5678578E5,3.3253264E-2,2.605773E-4,2.2822527E-5,1.3536734E5,5.264224E-3,1.1448914E-4,2.1342012E-1,1.8187861E-4,8.0889234E4,9.929476E-6,4.740425E-6,2.88023E-5,2.6045218E-5,1.1216411E5,1.6411231E5,1.3485712E-4,-3.6913628E3,2.7892494E4,-1.1972453E4,1.01950445E5,-2.8124788E3,-1.0393353E4,-4.4609023E3,3.704804E4,-1.1027318E4,1.1063264E3,1.2151993E4,-1.5540009E3,-4.1892188E3,4.2580883E4],"split_indices":[639,982,23,823,785,687,0,840,784,944,0,717,741,689,519,0,0,774,838,919,0,0,794,0,0,0,0,0,0,0,0,0,0,0,0,0,0],"split_type":[0,0,0,0,0,0,0,0,0,0,0,0,0,0,0,0,0,0,0,0,0,0,0,0,0,0,0,0,0,0,0,0,0,0,0,0,0],"sum_hessian":[2.441E3,1.791E3,6.5E2,1.771E3,2E1,6.47E2,3E0,1.763E3,8E0,1.8E1,2E0,6.32E2,1.5E1,1.755E3,8E0,4E0,4E0,1.1E1,7E0,6.3E2,2E0,3E0,1.2E1,1.742E3,1.3E1,5E0,3E0,2E0,2E0,2E0,9E0,3E0,4E0,2.83E2,3.47E2,4E0,8E0],"tree_param":{"num_deleted":"0","num_feature":"1000","num_nodes":"37","size_leaf_vector":"1"}},{"base_weights":[7.2137417E3,-1.5228189E5,2.748872E5,-1.7211981E5,1.633921E6,1.9829845E5,2.0910981E6,-7.296883E4,-3.867609E5,1.3356245E5,5.1615266E5,1.6571569E5,3.019685E6,1.0625936E6,1.6922016E5,-9.136662E4,2.3186662E6,-4.207671E5,9.7737825E5,3.7904363E4,1.3451427E4,5.7967094E5,-3.8360934E4,3.9310793E4,1.1984394E5,2.4288718E6,-7.197297E4,-2.522058E3,1.6484734E4,1.0521764E5,-9.976788E3,-1.0684733E4,-3.5027405E3,-2.333771E3,5.0648188E4,1.344964E4,-5.618913E3,6.8938154E3,4.6499457E4,-2.692373E3,2.2394465E4,1.4118921E4,-9.409867E3,3.7014902E3,7.8083445E4,-1.2441786E4,1.2167769E4],"categories":[],"categories_nodes":[],"categories_segments":[],"categories_sizes":[],"default_left":[0,0,0,0,0,0,0,0,0,0,0,0,0,0,0,0,0,0,0,0,0,0,0,0,0,0,0,0,0,0,0,0,0,0,0,0,0,0,0,0,0,0,0,0,0,0,0],"id":18,"left_children":[1,3,5,7,9,11,13,15,17,-1,19,21,23,25,-1,27,29,31,33,-1,35,37,39,41,-1,43,45,-1,-1,-1,-1,-1,-1,-1,-1,-1,-1,-1,-1,-1,-1,-1,-1,-1,-1,-1,-1],"loss_changes":[1.0485256E14,5.4815028E13,1.2714125E14,3.2384079E13,9.24033E13,8.048864E13,2.334142E14,4.6104687E13,2.2724437E13,0E0,1.0373376E13,7.368758E13,8.835643E13,5.132923E13,0E0,3.3053578E13,6.8942014E13,1.3006075E13,2.0711203E13,0E0,2.517131E12,1.1731066E14,6.536334E13,2.3712637E12,0E0,4.893158E13,7.4897534E12,0E0,0E0,0E0,0E0,0E0,0E0,0E0,0E0,0E0,0E0,0E0,0E0,0E0,0E0,0E0,0E0,0E0,0E0,0E0,0E0],"parents":[2147483647,0,0,1,1,2,2,3,3,4,4,5,5,6,6,7,7,8,8,10,10,11,11,12,12,13,13,15,15,16,16,17,17,18,18,20,20,21,21,22,22,23,23,25,25,26,26],"right_children":[2,4,6,8,10,12,14,16,18,-1,20,22,24,26,-1,28,30,32,34,-1,36,38,40,42,-1,44,46,-1,-1,-1,-1,-1,-1,-1,-1,-1,-1,-1,-1,-1,-1,-1,-1,-1,-1,-1,-1],"split_conditions":[3.9724907E-4,7.885468E-2,5.8233656E-4,9.108577E-5,9.985414E-6,1.7463076E-3,4.299457E-5,9.465445E-3,3.2825254E-2,1.3356245E5,1.1683795E-6,1.79076E-5,1.211837E-4,6.2990474E-4,1.6922016E5,5.680287E-3,1.9894817E-6,3.7063353E-4,1.1278792E-4,3.7904363E4,3.9549494E-7,1.753126E-5,9.3157095E-4,5.489728E-5,1.1984394E5,2.1539626E-4,1.6743E-3,-2.522058E3,1.6484734E4,1.0521764E5,-9.976788E3,-1.0684733E4,-3.5027405E3,-2.333771E3,5.0648188E4,1.344964E4,-5.618913E3,6.8938154E3,4.6499457E4,-2.692373E3,2.2394465E4,1.4118921E4,-9.409867E3,3.7014902E3,7.8083445E4,-1.2441786E4,1.2167769E4],"split_indices":[639,982,687,692,258,864,374,509,667,0,609,450,516,830,0,439,28,558,434,0,51,146,61,512,0,971,399,0,0,0,0,0,0,0,0,0,0,0,0,0,0,0,0,0,0,0,0],"split_type":[0,0,0,0,0,0,0,0,0,0,0,0,0,0,0,0,0,0,0,0,0,0,0,0,0,0,0,0,0,0,0,0,0,0,0,0,0,0,0,0,0,0,0,0,0,0,0],"sum_hessian":[2.454E3,1.538E3,9.16E2,1.522E3,1.6E1,8.8E2,3.6E1,1.042E3,4.8E2,2E0,1.4E1,8.71E2,9E0,3.2E1,4E0,1.035E3,7E0,4.69E2,1.1E1,3E0,1.1E1,2.87E2,5.84E2,5E0,4E0,1.4E1,1.8E1,9.98E2,3.7E1,3E0,4E0,3.2E2,1.49E2,7E0,4E0,3E0,8E0,2.54E2,3.3E1,5.4E2,4.4E1,2E0,3E0,6E0,8E0,1E1,8E0],"tree_param":{"num_deleted":"0","num_feature":"1000","num_nodes":"47","size_leaf_vector":"1"}},{"base_weights":[2.5351868E2,-2.6336234E5,1.6254569E5,-2.7839806E5,2.570919E6,6.554606E5,5.0205246E4,-3.20219E5,4.445771E5,6.940696E4,1.6290336E4,4.927786E5,4.998598E6,1.9865327E3,1.3812199E6,-3.3377975E5,1.699459E6,2.1630545E4,1.6792185E6,2.6276408E6,3.7502338E5,-6.521479E3,1.2741051E5,-1.1301963E4,1.0509419E5,8.56622E5,1.2563786E5,-6.912674E3,2.8615865E4,-1.9098837E3,5.2416184E4,-7.5537817E3,2.7893229E4,6.332274E4,-9.517668E2,-6.2216626E3,6.2867027E4,6.341992E3,7.947812E4,-5.802101E2,5.199815E4,2.5928882E3,8.5305625E4],"categories":[],"categories_nodes":[],"categories_segments":[],"categories_sizes":[],"default_left":[0,0,0,0,0,0,0,0,0,0,0,0,0,0,0,0,0,0,0,0,0,0,0,0,0,0,0,0,0,0,0,0,0,0,0,0,0,0,0,0,0,0,0],"id":19,"left_children":[1,3,5,7,9,11,13,15,17,-1,-1,19,21,23,25,27,29,31,33,35,37,-1,-1,39,-1,41,-1,-1,-1,-1,-1,-1,-1,-1,-1,-1,-1,-1,-1,-1,-1,-1,-1],"loss_changes":[1.0430446E14,4.030551E13,8.352688E13,2.8110209E13,5.0721446E12,1.9537095E14,7.893843E13,2.4532048E13,2.6595234E13,0E0,0E0,6.7141584E13,7.51279E13,8.298272E13,1.05166745E14,1.8692444E13,1.0172955E13,2.19096E13,3.3529744E13,2.2195292E13,5.252274E13,0E0,0E0,5.491691E13,0E0,9.8567805E13,0E0,0E0,0E0,0E0,0E0,0E0,0E0,0E0,0E0,0E0,0E0,0E0,0E0,0E0,0E0,0E0,0E0],"parents":[2147483647,0,0,1,1,2,2,3,3,4,4,5,5,6,6,7,7,8,8,11,11,12,12,13,13,14,14,15,15,16,16,17,17,18,18,19,19,20,20,23,23,25,25],"right_children":[2,4,6,8,10,12,14,16,18,-1,-1,20,22,24,26,28,30,32,34,36,38,-1,-1,40,-1,42,-1,-1,-1,-1,-1,-1,-1,-1,-1,-1,-1,-1,-1,-1,-1,-1,-1],"split_conditions":[1.6787801E-4,5.8047575E-1,3.5427524E-6,1.5049984E-3,1.7842782E-6,5.941333E-4,8.159569E-4,3.866012E-2,3.1710166E-4,6.940696E4,1.6290336E4,7.816653E-8,5.136841E-8,1.1185304E-3,7.373664E-5,1.20316915E-1,2.5747674E-8,2.1570513E-3,2.7968823E-5,1.891119E-6,3.219071E-2,-6.521479E3,1.2741051E5,8.096943E-3,1.0509419E5,1.0721647E-3,1.2563786E5,-6.912674E3,2.8615865E4,-1.9098837E3,5.2416184E4,-7.5537817E3,2.7893229E4,6.332274E4,-9.517668E2,-6.2216626E3,6.2867027E4,6.341992E3,7.947812E4,-5.802101E2,5.199815E4,2.5928882E3,8.5305625E4],"split_indices":[655,834,675,439,257,753,191,578,916,0,0,715,0,271,74,851,512,615,724,585,823,0,0,538,0,463,0,0,0,0,0,0,0,0,0,0,0,0,0,0,0,0,0],"split_type":[0,0,0,0,0,0,0,0,0,0,0,0,0,0,0,0,0,0,0,0,0,0,0,0,0,0,0,0,0,0,0,0,0,0,0,0,0,0,0,0,0,0,0],"sum_hessian":[2.436E3,9.28E2,1.508E3,9.24E2,4E0,2.79E2,1.229E3,8.74E2,5E1,2E0,2E0,2.7E2,9E0,1.187E3,4.2E1,8.69E2,5E0,3.8E1,1.2E1,1.3E1,2.57E2,2E0,7E0,1.185E3,2E0,3.9E1,3E0,8.64E2,5E0,2E0,3E0,3E1,8E0,6E0,6E0,2E0,1.1E1,2.54E2,3E0,1.178E3,7E0,3.3E1,6E0],"tree_param":{"num_deleted":"0","num_feature":"1000","num_nodes":"43","size_leaf_vector":"1"}},{"base_weights":[2.2811863E3,-2.0950506E5,2.0599758E5,-2.4112502E5,1.6871001E6,1.9310055E5,1.1090975E5,-2.968163E5,2.9904572E5,4.6427006E5,1.2924705E5,2.2013362E6,1.5887919E5,-3.0703522E5,1.5869464E6,2.1519725E6,-5.5183016E4,-7.000047E5,2.2275205E6,3.599301E6,3.0364488E5,9.421275E4,9.359268E5,-1.0917753E3,-7.602679E3,5.6226688E4,-1.1491063E4,9.14932E3,8.4258445E4,-4.435909E3,7.5813984E4,-1.6216007E4,-2.6856558E3,7.115311E4,1.9678705E4,9.883745E3,8.34181E4,-7.759808E3,2.8761906E4,1.250582E3,3.9338543E4,5.106592E3,6.6441266E4],"categories":[],"categories_nodes":[],"categories_segments":[],"categories_sizes":[],"default_left":[0,0,0,0,0,0,0,0,0,0,0,0,0,0,0,0,0,0,0,0,0,0,0,0,0,0,0,0,0,0,0,0,0,0,0,0,0,0,0,0,0,0,0],"id":20,"left_children":[1,3,5,7,9,11,-1,13,15,17,-1,19,21,23,25,27,29,31,33,35,37,39,41,-1,-1,-1,-1,-1,-1,-1,-1,-1,-1,-1,-1,-1,-1,-1,-1,-1,-1,-1,-1],"loss_changes":[1.066528E14,7.3091124E13,8.569727E13,3.5977557E13,1.1378617E14,8.6105764E13,0E0,2.1315738E13,7.3631065E13,3.645871E13,0E0,5.4618126E13,6.2119966E13,1.9853688E13,1.7494348E13,6.0933993E13,6.1714087E13,5.805986E11,8.078454E12,1.9237528E13,8.404228E12,6.7755592E13,1.5343157E14,0E0,0E0,0E0,0E0,0E0,0E0,0E0,0E0,0E0,0E0,0E0,0E0,0E0,0E0,0E0,0E0,0E0,0E0,0E0,0E0],"parents":[2147483647,0,0,1,1,2,2,3,3,4,4,5,5,7,7,8,8,9,9,11,11,12,12,13,13,14,14,15,15,16,16,17,17,18,18,19,19,20,20,21,21,22,22],"right_children":[2,4,6,8,10,12,-1,14,16,18,-1,20,22,24,26,28,30,32,34,36,38,40,42,-1,-1,-1,-1,-1,-1,-1,-1,-1,-1,-1,-1,-1,-1,-1,-1,-1,-1,-1,-1],"split_conditions":[3.9295256E-4,2.5451228E-1,1.5204892E-2,3.6888085E-3,6.721948E-4,6.727302E-8,1.1090975E5,2.930909E-2,1.3613416E-4,9.445347E-4,1.2924705E5,5.288376E-5,4.629046E-4,5.5927288E-8,1.6595452E-5,2.4858095E-5,1.34889E-3,2.5718105E-6,1.0012582E-4,1.720512E-6,1.09106426E-4,1.0855527E-3,9.649619E-4,-1.0917753E3,-7.602679E3,5.6226688E4,-1.1491063E4,9.14932E3,8.4258445E4,-4.435909E3,7.5813984E4,-1.6216007E4,-2.6856558E3,7.115311E4,1.9678705E4,9.883745E3,8.34181E4,-7.759808E3,2.8761906E4,1.250582E3,3.9338543E4,5.106592E3,6.6441266E4],"split_indices":[834,445,814,655,543,679,0,971,731,435,0,862,76,376,1,558,789,3,514,885,778,506,877,0,0,0,0,0,0,0,0,0,0,0,0,0,0,0,0,0,0,0,0],"split_type":[0,0,0,0,0,0,0,0,0,0,0,0,0,0,0,0,0,0,0,0,0,0,0,0,0,0,0,0,0,0,0,0,0,0,0,0,0,0,0,0,0,0,0],"sum_hessian":[2.47E3,1.211E3,1.259E3,1.192E3,1.9E1,1.257E3,2E0,1.081E3,1.11E2,1.6E1,3E0,2E1,1.237E3,1.076E3,5E0,1.7E1,9.4E1,1E1,6E0,1.1E1,9E0,1.143E3,9.4E1,2.42E2,8.34E2,3E0,2E0,1E1,7E0,9.1E1,3E0,8E0,2E0,2E0,4E0,2E0,9E0,6E0,3E0,1.125E3,1.8E1,7.4E1,2E1],"tree_param":{"num_deleted":"0","num_feature":"1000","num_nodes":"43","size_leaf_vector":"1"}},{"base_weights":[-1.7965244E3,-1.7538698E5,2.861992E5,-1.9311112E5,1.3172766E6,2.0817661E5,2.19197E6,-3.3912594E5,-5.347428E4,3.1624382E6,-1.4441145E5,3.7254216E5,-2.918748E5,8.207159E5,7.755635E6,-3.7052575E5,5.3258106E5,1.9562704E6,-9.052303E4,2.4277463E4,7.2192945E4,1.245345E4,-5.09902E5,3.3606966E5,4.322427E6,-3.2496084E5,4.39728E4,-2.5338423E5,2.2447995E6,1.9449173E5,3.777673E4,-3.5890024E3,-9.899481E3,4.663377E4,-7.931209E3,-1.0136042E4,8.983486E4,-2.0769788E3,6.595564E4,-1.28958125E4,-1.4031492E3,6.086719E3,7.488635E4,1.2011498E5,1.2743776E4,1.2837339E4,-7.9986504E3,1.1392394E4,-1.0584306E4,-3.2699912E3,5.9672777E4],"categories":[],"categories_nodes":[],"categories_segments":[],"categories_sizes":[],"default_left":[0,0,0,0,0,0,0,0,0,0,0,0,0,0,0,0,0,0,0,0,0,0,0,0,0,0,0,0,0,0,0,0,0,0,0,0,0,0,0,0,0,0,0,0,0,0,0,0,0,0,0],"id":21,"left_children":[1,3,5,7,9,11,13,15,17,19,21,23,25,27,29,31,33,35,37,-1,-1,-1,39,41,43,45,-1,47,49,-1,-1,-1,-1,-1,-1,-1,-1,-1,-1,-1,-1,-1,-1,-1,-1,-1,-1,-1,-1,-1,-1],"loss_changes":[1.2203387E14,4.054715E13,1.3604401E14,3.0687772E13,4.9003606E13,7.268358E13,2.68286E14,2.0342702E13,5.7584615E13,2.5896807E12,3.401483E12,9.434875E13,1.8760348E13,4.645705E13,6.2491975E13,1.6818077E13,4.438692E13,8.970718E13,3.4567885E13,0E0,0E0,0E0,4.2929553E11,7.0243595E13,3.3393849E13,1.5985889E13,0E0,4.3876334E12,2.3619334E13,0E0,0E0,0E0,0E0,0E0,0E0,0E0,0E0,0E0,0E0,0E0,0E0,0E0,0E0,0E0,0E0,0E0,0E0,0E0,0E0,0E0,0E0],"parents":[2147483647,0,0,1,1,2,2,3,3,4,4,5,5,6,6,7,7,8,8,9,9,10,10,11,11,12,12,13,13,14,14,15,15,16,16,17,17,18,18,22,22,23,23,24,24,25,25,27,27,28,28],"right_children":[2,4,6,8,10,12,14,16,18,20,22,24,26,28,30,32,34,36,38,-1,-1,-1,40,42,44,46,-1,48,50,-1,-1,-1,-1,-1,-1,-1,-1,-1,-1,-1,-1,-1,-1,-1,-1,-1,-1,-1,-1,-1,-1],"split_conditions":[3.9724907E-4,9.480979E-2,5.8233656E-4,1.1055403E-4,6.4487715E-8,4.8152352E-4,4.361561E-5,5.529869E-3,6.327515E-8,7.5271195E-8,1.4353009E-7,1.7463076E-3,3.6734575E-3,5.314501E-4,3.8117528E-4,6.7498114E-8,6.9322427E-6,6.02897E-5,3.4146858E-3,2.4277463E4,7.2192945E4,1.245345E4,1.3332348E-6,3.3235442E-4,5.1220093E-5,6.219061E-7,4.39728E4,1.5725533E-5,3.5286043E-4,1.9449173E5,3.777673E4,-3.5890024E3,-9.899481E3,4.663377E4,-7.931209E3,-1.0136042E4,8.983486E4,-2.0769788E3,6.595564E4,-1.28958125E4,-1.4031492E3,6.086719E3,7.488635E4,1.2011498E5,1.2743776E4,1.2837339E4,-7.9986504E3,1.1392394E4,-1.0584306E4,-3.2699912E3,5.9672777E4],"split_indices":[639,578,687,652,3,795,120,552,145,795,540,864,632,794,773,300,727,579,950,0,0,0,0,900,768,595,0,622,552,0,0,0,0,0,0,0,0,0,0,0,0,0,0,0,0,0,0,0,0,0,0],"split_type":[0,0,0,0,0,0,0,0,0,0,0,0,0,0,0,0,0,0,0,0,0,0,0,0,0,0,0,0,0,0,0,0,0,0,0,0,0,0,0,0,0,0,0,0,0,0,0,0,0,0,0],"sum_hessian":[2.439E3,1.522E3,9.17E2,1.505E3,1.7E1,8.82E2,3.5E1,7.35E2,7.7E2,7E0,1E1,6.64E2,2.18E2,2.9E1,6E0,7.1E2,2.5E1,1.3E1,7.57E2,2E0,5E0,3E0,7E0,6.59E2,5E0,2.16E2,2E0,1.7E1,1.2E1,4E0,2E0,2.81E2,4.29E2,8E0,1.7E1,7E0,6E0,7.55E2,2E0,5E0,2E0,6.54E2,5E0,3E0,2E0,1.5E1,2.01E2,4E0,1.3E1,3E0,9E0],"tree_param":{"num_deleted":"0","num_feature":"1000","num_nodes":"51","size_leaf_vector":"1"}},{"base_weights":[-1.3444744E3,-1.337829E5,3.560216E5,-1.5391545E5,1.568514E6,2.6726612E5,3.3502988E6,-1.6099277E4,-3.0562506E5,7.041012E5,1.30405805E5,2.431995E5,1.06729125E5,1.4214638E6,2.0456128E5,-3.10181E4,9.188421E4,-3.349941E5,8.5851656E5,1.801374E6,5.910034E4,6.012972E5,-3.9975336E4,2.5986832E6,2.1710594E5,-1.681119E3,1.6883826E4,-7.4432324E3,1.3172679E4,-1.9053845E3,9.871847E4,1.1046518E4,4.381056E4,1.9393719E4,-6.2208784E3,5.821056E3,3.1275648E4,-2.0164594E3,5.2998465E4,6.10025E4,2.7694209E4,-6.1290005E3,1.8963268E4],"categories":[],"categories_nodes":[],"categories_segments":[],"categories_sizes":[],"default_left":[0,0,0,0,0,0,0,0,0,0,0,0,0,0,0,0,0,0,0,0,0,0,0,0,0,0,0,0,0,0,0,0,0,0,0,0,0,0,0,0,0,0,0],"id":22,"left_children":[1,3,5,7,9,11,13,15,17,19,-1,21,-1,23,-1,25,-1,27,29,31,33,35,37,39,41,-1,-1,-1,-1,-1,-1,-1,-1,-1,-1,-1,-1,-1,-1,-1,-1,-1,-1],"loss_changes":[1.1605102E14,6.1553223E13,1.7530248E14,3.6981405E13,8.529702E13,7.739108E13,2.3751664E14,6.3970715E13,2.9075343E13,1.3340634E13,0E0,6.5226968E13,0E0,2.2120508E13,0E0,4.3055172E13,0E0,3.0602145E13,8.2138674E13,2.1926207E12,4.68324E12,8.434886E13,5.91898E13,1.6076348E11,3.7353103E12,0E0,0E0,0E0,0E0,0E0,0E0,0E0,0E0,0E0,0E0,0E0,0E0,0E0,0E0,0E0,0E0,0E0,0E0],"parents":[2147483647,0,0,1,1,2,2,3,3,4,4,5,5,6,6,7,7,8,8,9,9,11,11,13,13,15,15,17,17,18,18,19,19,20,20,21,21,22,22,23,23,24,24],"right_children":[2,4,6,8,10,12,14,16,18,20,-1,22,-1,24,-1,26,-1,28,30,32,34,36,38,40,42,-1,-1,-1,-1,-1,-1,-1,-1,-1,-1,-1,-1,-1,-1,-1,-1,-1,-1],"split_conditions":[9.2971494E-4,7.885468E-2,5.8233656E-4,1.5094556E-6,1.1268286E-3,5.264224E-3,2.1459064E-5,4.741501E-2,2.0077096E-2,2.9936897E-5,1.30405805E5,2.6045218E-5,1.06729125E5,2.8682483E-4,2.0456128E5,2.1858392E-5,9.188421E4,9.534448E-3,5.862162E-3,2.5752455E-5,1.1117561E-6,5.371093E-6,2.2526134E-3,1.187482E-4,2.0322477E-4,-1.681119E3,1.6883826E4,-7.4432324E3,1.3172679E4,-1.9053845E3,9.871847E4,1.1046518E4,4.381056E4,1.9393719E4,-6.2208784E3,5.821056E3,3.1275648E4,-2.0164594E3,5.2998465E4,6.10025E4,2.7694209E4,-6.1290005E3,1.8963268E4],"split_indices":[639,982,687,392,785,717,132,476,641,807,0,919,0,675,0,376,0,451,624,258,512,114,60,259,777,0,0,0,0,0,0,0,0,0,0,0,0,0,0,0,0,0,0],"split_type":[0,0,0,0,0,0,0,0,0,0,0,0,0,0,0,0,0,0,0,0,0,0,0,0,0,0,0,0,0,0,0,0,0,0,0,0,0,0,0,0,0,0,0],"sum_hessian":[2.45E3,1.788E3,6.62E2,1.768E3,2E1,6.44E2,1.8E1,9.27E2,8.41E2,1.8E1,2E0,6.42E2,2E0,1.5E1,3E0,9.25E2,2E0,8.21E2,2E1,6E0,1.2E1,2.83E2,3.59E2,7E0,8E0,8.73E2,5.2E1,7.92E2,2.9E1,1.7E1,3E0,2E0,4E0,3E0,9E0,2.15E2,6.8E1,3.52E2,7E0,4E0,3E0,5E0,3E0],"tree_param":{"num_deleted":"0","num_feature":"1000","num_nodes":"43","size_leaf_vector":"1"}},{"base_weights":[1.0034445E4,-1.22780875E5,3.2113112E5,-2.583054E5,8.990673E4,2.7642597E5,3.5256725E6,-2.6767756E5,6.1973668E4,4.8928742E4,3.9582632E6,8.5667044E5,6.5404137E4,8.2031794E5,1.9129453E5,-2.7826972E5,1.9953768E6,2.6893422E4,9.7754695E4,-8.0943867E3,1.15688E5,7.651406E5,1.2797029E5,1.9328154E4,2.740783E6,-9.846109E3,4.5120355E4,-7.297512E2,-7.261935E3,6.171342E4,4.799137E3,1.1155075E2,9.400636E4,1.2202545E4,5.6813965E4,-5.2846592E1,7.671499E4,7.320703E4,-6.3694243E3],"categories":[],"categories_nodes":[],"categories_segments":[],"categories_sizes":[],"default_left":[0,0,0,0,0,0,0,0,0,0,0,0,0,0,0,0,0,0,0,0,0,0,0,0,0,0,0,0,0,0,0,0,0,0,0,0,0,0,0],"id":23,"left_children":[1,3,5,7,9,11,13,15,-1,17,19,21,23,25,-1,27,29,31,-1,-1,-1,33,-1,35,37,-1,-1,-1,-1,-1,-1,-1,-1,-1,-1,-1,-1,-1,-1],"loss_changes":[1.0122821E14,4.951469E13,1.0403469E14,3.3833366E13,1.0585449E14,8.85936E13,1.5553174E14,2.5652447E13,0E0,7.056071E13,5.811287E13,9.300237E13,6.552705E13,1.6186914E13,0E0,2.1378342E13,8.829194E12,6.5821406E13,0E0,0E0,0E0,5.9719004E13,0E0,4.3946814E13,2.6484467E13,0E0,0E0,0E0,0E0,0E0,0E0,0E0,0E0,0E0,0E0,0E0,0E0,0E0,0E0],"parents":[2147483647,0,0,1,1,2,2,3,3,4,4,5,5,6,6,7,7,9,9,10,10,11,11,12,12,13,13,15,15,16,16,17,17,21,21,23,23,24,24],"right_children":[2,4,6,8,10,12,14,16,-1,18,20,22,24,26,-1,28,30,32,-1,-1,-1,34,-1,36,38,-1,-1,-1,-1,-1,-1,-1,-1,-1,-1,-1,-1,-1,-1],"split_conditions":[1.1516763E-3,1.2850744E-4,4.8788182E-2,2.930909E-2,1.3996455E-3,1.203487E-4,4.1178237E-3,2.6437765E-2,6.1973668E4,2.281631E-1,5.276407E-5,8.092701E-4,6.158251E-2,8.649774E-4,1.9129453E5,9.483379E-8,1.4937887E-6,5.983668E-4,9.7754695E4,-8.0943867E3,1.15688E5,4.861351E-2,1.2797029E5,6.2258774E-4,1.854884E-5,-9.846109E3,4.5120355E4,-7.297512E2,-7.261935E3,6.171342E4,4.799137E3,1.1155075E2,9.400636E4,1.2202545E4,5.6813965E4,-5.2846592E1,7.671499E4,7.320703E4,-6.3694243E3],"split_indices":[459,982,487,971,273,917,513,598,0,610,518,188,982,768,0,335,768,98,0,0,0,697,0,825,260,0,0,0,0,0,0,0,0,0,0,0,0,0,0],"split_type":[0,0,0,0,0,0,0,0,0,0,0,0,0,0,0,0,0,0,0,0,0,0,0,0,0,0,0,0,0,0,0,0,0,0,0,0,0,0,0],"sum_hessian":[2.448E3,1.716E3,7.32E2,1.048E3,6.68E2,7.23E2,9E0,1.046E3,2E0,6.62E2,6E0,1.92E2,5.31E2,7E0,2E0,1.042E3,4E0,6.6E2,2E0,2E0,4E0,1.9E2,2E0,5.23E2,8E0,4E0,3E0,2.71E2,7.71E2,2E0,2E0,6.58E2,2E0,1.78E2,1.2E1,5.21E2,2E0,6E0,2E0],"tree_param":{"num_deleted":"0","num_feature":"1000","num_nodes":"39","size_leaf_vector":"1"}},{"base_weights":[-1.6010154E3,-2.4820269E5,1.4812248E5,1.2657667E5,-3.227367E5,1.895722E6,1.1985485E5,-1.7769461E5,1.2384024E6,-3.6682134E5,3.1589184E5,2.565685E6,-1.083563E4,9.9982234E4,2.5575112E6,-2.5187917E5,5.6483824E4,3.1571915E6,3.8730675E5,-3.8648766E5,9.3053444E5,1.2050818E5,6.673466E4,-4.0295325E3,2.903085E6,-5.07617E4,3.3747922E5,1.8874394E5,2.3785444E5,-9.874186E3,2.8525513E3,9.3055055E4,1.4621596E4,-1.9184818E3,5.654884E4,-8.082393E3,1.3367531E4,5.0521266E4,-6.8412505E3,-1.2104631E3,4.2539676E4,6.43449E4,2.1555084E4,-1.3969939E3,1.1423293E5,-3.4138828E3,1.1070594E4,-1.3131693E4,5.087481E4],"categories":[],"categories_nodes":[],"categories_segments":[],"categories_sizes":[],"default_left":[0,0,0,0,0,0,0,0,0,0,0,0,0,0,0,0,0,0,0,0,0,0,0,0,0,0,0,0,0,0,0,0,0,0,0,0,0,0,0,0,0,0,0,0,0,0,0,0,0],"id":24,"left_children":[1,3,5,7,9,11,13,15,17,19,21,23,-1,25,27,29,-1,31,33,35,37,39,-1,-1,41,43,45,-1,47,-1,-1,-1,-1,-1,-1,-1,-1,-1,-1,-1,-1,-1,-1,-1,-1,-1,-1,-1,-1],"loss_changes":[8.972047E13,2.568408E13,7.446635E13,5.197944E13,2.1681624E13,4.0582928E13,7.187536E13,2.7657278E13,5.2668614E13,1.8653337E13,2.9109046E13,1.8324084E13,0E0,5.2931345E13,1.8925747E14,1.1423445E13,0E0,3.2882463E13,2.8570785E13,1.3419869E13,2.319919E13,1.7564011E13,0E0,0E0,6.2811883E12,9.99425E13,6.311458E13,0E0,2.229493E13,0E0,0E0,0E0,0E0,0E0,0E0,0E0,0E0,0E0,0E0,0E0,0E0,0E0,0E0,0E0,0E0,0E0,0E0,0E0,0E0],"parents":[2147483647,0,0,1,1,2,2,3,3,4,4,5,5,6,6,7,7,8,8,9,9,10,10,11,11,13,13,14,14,15,15,17,17,18,18,19,19,20,20,21,21,24,24,25,25,26,26,28,28],"right_children":[2,4,6,8,10,12,14,16,18,20,22,24,-1,26,28,30,-1,32,34,36,38,40,-1,-1,42,44,46,-1,48,-1,-1,-1,-1,-1,-1,-1,-1,-1,-1,-1,-1,-1,-1,-1,-1,-1,-1,-1,-1],"split_conditions":[1.6787801E-4,2.0163162E-8,2.6321757E-8,1.2434112E-6,1.3524011E-3,6.92349E-8,4.8788182E-2,5.0738276E-5,3.494048E-8,5.1100017E-3,5.862162E-3,6.113491E-8,-1.083563E4,1.6208162E-4,9.596531E-5,3.2414325E-6,5.6483824E4,7.992958E-6,5.1422718E-5,4.8552393E-3,9.5280933E-7,2.0272138E-5,6.673466E4,-4.0295325E3,1.6681446E-7,3.8983945E-3,1.4563365E-3,1.8874394E5,6.957976E-5,-9.874186E3,2.8525513E3,9.3055055E4,1.4621596E4,-1.9184818E3,5.654884E4,-8.082393E3,1.3367531E4,5.0521266E4,-6.8412505E3,-1.2104631E3,4.2539676E4,6.43449E4,2.1555084E4,-1.3969939E3,1.1423293E5,-3.4138828E3,1.1070594E4,-1.3131693E4,5.087481E4],"split_indices":[655,47,517,736,439,69,487,474,863,713,624,805,0,434,674,701,0,762,870,552,2,304,0,0,6,106,655,0,3,0,0,0,0,0,0,0,0,0,0,0,0,0,0,0,0,0,0,0,0],"split_type":[0,0,0,0,0,0,0,0,0,0,0,0,0,0,0,0,0,0,0,0,0,0,0,0,0,0,0,0,0,0,0,0,0,0,0,0,0,0,0,0,0,0,0,0,0,0,0,0,0],"sum_hessian":[2.428E3,9.17E2,1.511E3,1.52E2,7.65E2,2.3E1,1.488E3,1.2E2,3.2E1,7.16E2,4.9E1,1.8E1,5E0,1.477E3,1.1E1,1.18E2,2E0,9E0,2.3E1,7.06E2,1E1,4.7E1,2E0,2E0,1.6E1,9.04E2,5.73E2,2E0,9E0,7.3E1,4.5E1,5E0,4E0,2E1,3E0,6.95E2,1.1E1,4E0,6E0,4.4E1,3E0,1.3E1,3E0,9.02E2,2E0,1.71E2,4.02E2,7E0,2E0],"tree_param":{"num_deleted":"0","num_feature":"1000","num_nodes":"49","size_leaf_vector":"1"}},{"base_weights":[1.9362512E4,-1.24085266E5,2.9202578E5,1.1335001E5,-2.4312952E5,2.6691997E5,3.7707238E6,8.196996E4,8.579879E4,-2.6795338E5,1.4150959E6,1.822566E5,1.2291531E6,1.0662894E5,8.657021E3,-2.7427278E5,3.30855E5,-2.8006878E5,2.3419832E6,1.1657324E5,1.0563041E5,6.833396E5,-2.8769645E4,8.715986E5,1.737127E5,-6.141878E3,4.426186E4,3.5544277E4,3.6813176E3,-5.8621387E3,4.0965742E4,-1.0576259E4,8.864236E4,3.2833008E4,-1.0102299E4,1.0214032E4,1.22202695E5,7.3524625E4,-1.2566538E3,9.95185E3,1.308859E5],"categories":[],"categories_nodes":[],"categories_segments":[],"categories_sizes":[],"default_left":[0,0,0,0,0,0,0,0,0,0,0,0,0,0,0,0,0,0,0,0,0,0,0,0,0,0,0,0,0,0,0,0,0,0,0,0,0,0,0,0,0],"id":25,"left_children":[1,3,5,7,9,11,13,15,-1,17,19,21,23,-1,-1,25,27,29,31,33,-1,35,37,39,-1,-1,-1,-1,-1,-1,-1,-1,-1,-1,-1,-1,-1,-1,-1,-1,-1],"loss_changes":[9.621496E13,4.559123E13,7.3054105E13,7.029055E13,4.458886E13,6.8451733E13,2.8949254E13,4.761438E13,0E0,3.4141895E13,7.971456E13,8.207519E13,1.7372435E14,0E0,0E0,1.8721653E13,6.676276E13,3.26275E13,3.2345522E13,1.3154814E13,0E0,2.123599E14,6.9264367E13,1.3677073E14,0E0,0E0,0E0,0E0,0E0,0E0,0E0,0E0,0E0,0E0,0E0,0E0,0E0,0E0,0E0,0E0,0E0],"parents":[2147483647,0,0,1,1,2,2,3,3,4,4,5,5,6,6,7,7,9,9,10,10,11,11,12,12,15,15,16,16,17,17,18,18,19,19,21,21,22,22,23,23],"right_children":[2,4,6,8,10,12,14,16,-1,18,20,22,24,-1,-1,26,28,30,32,34,-1,36,38,40,-1,-1,-1,-1,-1,-1,-1,-1,-1,-1,-1,-1,-1,-1,-1,-1,-1],"split_conditions":[9.0128544E-4,6.219061E-7,3.6950193E-3,3.6006165E-3,7.519122E-2,4.629046E-4,1.7212804E-4,8.095896E-7,8.579879E4,1.9099721E-1,5.3002127E-4,1.8648165E-5,6.1220773E-3,1.0662894E5,8.657021E3,5.277431E-5,5.4896976E-9,1.3013332E-3,2.3603066E-5,1.7993456E-5,1.0563041E5,6.385816E-5,9.66645E-7,5.1037692E-3,1.737127E5,-6.141878E3,4.426186E4,3.5544277E4,3.6813176E3,-5.8621387E3,4.0965742E4,-1.0576259E4,8.864236E4,3.2833008E4,-1.0102299E4,1.0214032E4,1.22202695E5,7.3524625E4,-1.2566538E3,9.95185E3,1.308859E5],"split_indices":[697,595,436,622,922,76,256,229,0,906,310,450,768,0,0,867,396,201,512,586,0,484,749,788,0,0,0,0,0,0,0,0,0,0,0,0,0,0,0,0,0],"split_type":[0,0,0,0,0,0,0,0,0,0,0,0,0,0,0,0,0,0,0,0,0,0,0,0,0,0,0,0,0,0,0,0,0,0,0,0,0,0,0,0,0],"sum_hessian":[2.458E3,1.611E3,8.47E2,5.38E2,1.073E3,8.42E2,5E0,5.35E2,3E0,1.058E3,1.5E1,7.75E2,6.7E1,3E0,2E0,2.2E2,3.15E2,1.054E3,4E0,1.2E1,3E0,2.29E2,5.46E2,6.5E1,2E0,2.18E2,2E0,2.8E1,2.87E2,1.049E3,5E0,2E0,2E0,3E0,9E0,2.23E2,6E0,4E0,5.42E2,6.2E1,3E0],"tree_param":{"num_deleted":"0","num_feature":"1000","num_nodes":"41","size_leaf_vector":"1"}},{"base_weights":[-1.1468185E4,-1.4636052E5,2.4394581E5,-1.6318653E5,1.9176714E6,2.2178164E5,9.6859484E4,-1.7316047E5,1.825819E6,5.725142E5,1.24213805E5,1.8501022E5,2.9795342E6,5.8134816E4,-2.6032498E5,-2.5439903E5,7.9392734E4,2.490502E4,-1.9564167E5,6.868423E4,9.549064E5,4.80739E6,-1.7537034E5,2.049844E2,8.3101836E4,-5.662464E3,1.9511508E4,6.5956665E1,-8.545924E3,-9.85121E3,1.5191575E3,6.5718884E2,5.814265E4,4.9574312E4,4.0137903E3,4.6594008E4,1.2166464E5,-6.221099E3,3.7542123E2],"categories":[],"categories_nodes":[],"categories_segments":[],"categories_sizes":[],"default_left":[0,0,0,0,0,0,0,0,0,0,0,0,0,0,0,0,0,0,0,0,0,0,0,0,0,0,0,0,0,0,0,0,0,0,0,0,0,0,0],"id":26,"left_children":[1,3,5,7,9,11,-1,13,15,17,-1,19,21,23,25,27,-1,-1,29,31,33,35,37,-1,-1,-1,-1,-1,-1,-1,-1,-1,-1,-1,-1,-1,-1,-1,-1],"loss_changes":[8.413643E13,5.5810562E13,8.495788E13,3.1779595E13,7.151651E13,8.473164E13,0E0,3.1848948E13,3.668674E13,5.9280573E12,0E0,7.435788E13,6.4276895E13,8.4905615E13,3.2594448E13,2.2418447E11,0E0,0E0,5.2127193E11,7.342403E13,1.2477437E14,7.9558733E12,1.3754886E11,0E0,0E0,0E0,0E0,0E0,0E0,0E0,0E0,0E0,0E0,0E0,0E0,0E0,0E0,0E0,0E0],"parents":[2147483647,0,0,1,1,2,2,3,3,4,4,5,5,7,7,8,8,9,9,11,11,12,12,13,13,14,14,15,15,18,18,19,19,20,20,21,21,22,22],"right_children":[2,4,6,8,10,12,-1,14,16,18,-1,20,22,24,26,28,-1,-1,30,32,34,36,38,-1,-1,-1,-1,-1,-1,-1,-1,-1,-1,-1,-1,-1,-1,-1,-1],"split_conditions":[9.0128544E-4,7.885468E-2,1.523578E-2,1.3013332E-3,6.1331316E-6,1.3996455E-3,9.6859484E4,1.1439574E-7,9.756845E-6,6.458368E-6,1.24213805E5,1.2242512E-2,5.4754717E-5,4.1726884E-3,7.519122E-2,2.663213E-4,7.9392734E4,2.490502E4,1.3332348E-6,1.0855527E-3,3.2298005E-6,6.898721E-4,8.460919E-6,2.049844E2,8.3101836E4,-5.662464E3,1.9511508E4,6.5956665E1,-8.545924E3,-9.85121E3,1.5191575E3,6.5718884E2,5.814265E4,4.9574312E4,4.0137903E3,4.6594008E4,1.2166464E5,-6.221099E3,3.7542123E2],"split_indices":[697,982,566,201,769,273,0,925,784,782,0,639,9,681,922,259,0,0,0,506,909,257,1,0,0,0,0,0,0,0,0,0,0,0,0,0,0,0,0],"split_type":[0,0,0,0,0,0,0,0,0,0,0,0,0,0,0,0,0,0,0,0,0,0,0,0,0,0,0,0,0,0,0,0,0,0,0,0,0,0,0],"sum_hessian":[2.44E3,1.597E3,8.43E2,1.585E3,1.2E1,8.4E2,3E0,1.578E3,7E0,1E1,2E0,8.3E2,1E1,4.32E2,1.146E3,4E0,3E0,5E0,5E0,7.22E2,1.08E2,6E0,4E0,4.28E2,4E0,1.126E3,2E1,2E0,2E0,2E0,3E0,7.14E2,8E0,3.5E1,7.3E1,3E0,3E0,2E0,2E0],"tree_param":{"num_deleted":"0","num_feature":"1000","num_nodes":"39","size_leaf_vector":"1"}},{"base_weights":[7.672951E3,-1.0952291E5,3.3813878E5,-1.2787528E5,1.4652575E6,2.8355453E5,6.0950075E6,-1.378809E5,2.125618E6,6.393588E5,1.2415061E5,1.873793E5,1.2258299E6,5.0642355E4,1.7627716E5,1.5297524E3,-2.8416006E5,9.741378E4,-9.911241E3,1.3062108E6,-4.4083888E5,-1.9036866E5,5.830889E5,8.925521E5,1.4298992E5,-5.3353813E3,3.3830889E3,-6.2347646E3,1.8152725E4,4.070698E4,9.892669E3,-1.1415393E4,-6.806212E2,-5.52138E3,2.1652057E4,2.0128123E4,-1.5198273E3,8.507011E4,8.274875E3],"categories":[],"categories_nodes":[],"categories_segments":[],"categories_sizes":[],"default_left":[0,0,0,0,0,0,0,0,0,0,0,0,0,0,0,0,0,0,0,0,0,0,0,0,0,0,0,0,0,0,0,0,0,0,0,0,0,0,0],"id":27,"left_children":[1,3,5,7,9,11,13,15,17,19,-1,21,23,-1,-1,25,27,-1,-1,29,31,33,35,37,-1,-1,-1,-1,-1,-1,-1,-1,-1,-1,-1,-1,-1,-1,-1],"loss_changes":[9.527221E13,5.2671516E13,2.0063874E14,4.078861E13,7.828054E13,5.7678735E13,3.5804072E13,3.648329E13,5.9976324E13,1.4262134E13,0E0,8.6958E13,1.1009805E14,0E0,0E0,4.128583E13,2.897634E13,0E0,0E0,6.0942713E12,4.034311E11,3.2808911E13,7.93125E13,8.996754E13,0E0,0E0,0E0,0E0,0E0,0E0,0E0,0E0,0E0,0E0,0E0,0E0,0E0,0E0,0E0],"parents":[2147483647,0,0,1,1,2,2,3,3,4,4,5,5,6,6,7,7,8,8,9,9,11,11,12,12,15,15,16,16,19,19,20,20,21,21,22,22,23,23],"right_children":[2,4,6,8,10,12,14,16,18,20,-1,22,24,-1,-1,26,28,-1,-1,30,32,34,36,38,-1,-1,-1,-1,-1,-1,-1,-1,-1,-1,-1,-1,-1,-1,-1],"split_conditions":[9.2971494E-4,7.885468E-2,4.6068418E-4,3.3253264E-2,1.1268286E-3,2.0323328E-4,1.4398746E-4,1.3969368E-6,3.7953258E-5,5.919167E-7,1.2415061E5,6.248388E-3,2.9704752E-4,5.0642355E4,1.7627716E5,1.1806275E-5,2.0077096E-2,9.741378E4,-9.911241E3,2.3656805E-6,1.7657805E-5,1.000748E-3,2.2530734E-5,1.5745954E-6,1.4298992E5,-5.3353813E3,3.3830889E3,-6.2347646E3,1.8152725E4,4.070698E4,9.892669E3,-1.1415393E4,-6.806212E2,-5.52138E3,2.1652057E4,2.0128123E4,-1.5198273E3,8.507011E4,8.274875E3],"split_indices":[639,982,277,840,785,687,2,392,512,387,0,639,972,0,0,869,641,0,0,294,1,525,812,871,0,0,0,0,0,0,0,0,0,0,0,0,0,0,0],"split_type":[0,0,0,0,0,0,0,0,0,0,0,0,0,0,0,0,0,0,0,0,0,0,0,0,0,0,0,0,0,0,0,0,0,0,0,0,0,0,0],"sum_hessian":[2.458E3,1.815E3,6.43E2,1.795E3,2E1,6.38E2,5E0,1.788E3,7E0,1.8E1,2E0,5.8E2,5.8E1,3E0,2E0,9.16E2,8.72E2,3E0,4E0,1.1E1,7E0,2.97E2,2.83E2,5.6E1,2E0,3.52E2,5.64E2,8.53E2,1.9E1,5E0,6E0,5E0,2E0,2.79E2,1.8E1,1.72E2,1.11E2,6E0,5E1],"tree_param":{"num_deleted":"0","num_feature":"1000","num_nodes":"39","size_leaf_vector":"1"}},{"base_weights":[3.5621688E4,-1.0673737E5,3.0256597E5,-1.3061631E5,1.9740079E6,-1.3287575E4,6.490951E5,5.934965E4,-2.5881536E5,-4.783906E4,1.8124864E5,-5.5844543E4,1.2465661E5,3.776419E6,5.760113E5,3.7372414E4,2.803425E6,-2.809228E5,1.4631841E6,-4.831673E5,3.709059E4,9.017632E5,-1.5916436E5,3.4495115E3,9.562955E4,5.269553E5,1.0454462E5,6.580899E1,3.2936734E4,-7.752246E3,1.01199734E5,-5.9193457E3,2.9535664E4,-8.571784E3,8.394769E4,-1.0883667E4,-1.9677188E3,7.131912E2,6.272452E4,-3.8643127E3,5.1118188E4,9.493318E3,7.606163E4],"categories":[],"categories_nodes":[],"categories_segments":[],"categories_sizes":[],"default_left":[0,0,0,0,0,0,0,0,0,0,0,0,0,0,0,0,0,0,0,0,0,0,0,0,0,0,0,0,0,0,0,0,0,0,0,0,0,0,0,0,0,0,0],"id":28,"left_children":[1,3,5,7,9,11,13,15,17,19,-1,21,-1,23,25,27,29,31,33,35,-1,37,39,-1,-1,41,-1,-1,-1,-1,-1,-1,-1,-1,-1,-1,-1,-1,-1,-1,-1,-1,-1],"loss_changes":[9.2110984E13,7.8811425E13,9.2277045E13,3.810416E13,2.584043E14,1.1783868E14,8.97045E13,3.794907E13,3.596751E13,1.3318371E13,0E0,4.367706E13,0E0,3.177489E13,8.714453E13,3.4387857E13,3.7965187E13,2.4844658E13,6.3868806E13,2.5167187E11,0E0,8.310505E13,3.7289636E13,0E0,0E0,6.5175743E13,0E0,0E0,0E0,0E0,0E0,0E0,0E0,0E0,0E0,0E0,0E0,0E0,0E0,0E0,0E0,0E0,0E0],"parents":[2147483647,0,0,1,1,2,2,3,3,4,4,5,5,6,6,7,7,8,8,9,9,11,11,13,13,14,14,15,15,16,16,17,17,18,18,19,19,21,21,22,22,25,25],"right_children":[2,4,6,8,10,12,14,16,18,20,-1,22,-1,24,26,28,30,32,34,36,-1,38,40,-1,-1,42,-1,-1,-1,-1,-1,-1,-1,-1,-1,-1,-1,-1,-1,-1,-1,-1,-1],"split_conditions":[1.5324531E-3,4.008589E-2,1.6208162E-4,6.4413615E-7,8.370267E-3,1.3996455E-3,3.1982631E-6,4.008717E-2,2.3249305E-4,6.394346E-3,1.8124864E5,1.9050893E-7,1.2465661E5,6.2476784E-6,9.014532E-3,3.7279094E-3,4.0239856E-6,1.6053725E-2,1.2598181E-3,5.5258702E-3,3.709059E4,3.9258205E-7,2.17219E-3,3.4495115E3,9.562955E4,1.0652793E-2,1.0454462E5,6.580899E1,3.2936734E4,-7.752246E3,1.01199734E5,-5.9193457E3,2.9535664E4,-8.571784E3,8.394769E4,-1.0883667E4,-1.9677188E3,7.131912E2,6.272452E4,-3.8643127E3,5.1118188E4,9.493318E3,7.606163E4],"split_indices":[655,487,434,392,982,273,854,838,142,617,0,28,0,782,768,675,256,415,776,543,0,98,538,0,0,428,0,0,0,0,0,0,0,0,0,0,0,0,0,0,0,0,0],"split_type":[0,0,0,0,0,0,0,0,0,0,0,0,0,0,0,0,0,0,0,0,0,0,0,0,0,0,0,0,0,0,0,0,0,0,0,0,0,0,0,0,0,0,0],"sum_hessian":[2.422E3,1.58E3,8.42E2,1.563E3,1.7E1,4.41E2,4.01E2,6.3E2,9.33E2,1.4E1,3E0,4.39E2,2E0,8E0,3.93E2,6.26E2,4E0,9.22E2,1.1E1,1.2E1,2E0,4.2E1,3.97E2,2E0,6E0,3.9E2,3E0,6.14E2,1.2E1,2E0,2E0,9.15E2,7E0,7E0,4E0,1E1,2E0,3.1E1,1.1E1,3.93E2,4E0,3.85E2,5E0],"tree_param":{"num_deleted":"0","num_feature":"1000","num_nodes":"43","size_leaf_vector":"1"}},{"base_weights":[1.2359079E4,-1.5452047E5,2.3916112E5,-2.2112378E5,5.869122E5,1.6970509E6,1.8025292E5,-2.3136673E5,2.455541E6,3.376996E5,4.4192655E6,9.761673E5,1.12387266E5,1.53316E5,2.8155155E6,-2.5773181E5,5.956898E5,1.5021796E4,6.682957E4,1.194313E6,-2.2989278E5,1.0645737E5,2.8803438E4,2.6057485E6,2.2010488E5,1.1238158E5,1.7877158E6,1.4957E5,1.7972397E5,-5.3820557E3,2.6700914E4,4.973395E4,9.0457294E2,6.0226387E3,8.4020305E4,-6.8743706E3,4.6259258E4,1.5203821E4,8.034029E4,-9.011456E3,4.018144E4,1.5008677E3,3.137112E4,1.0590462E4,1.2925886E5,3.3840055E4,-1.2931495E4],"categories":[],"categories_nodes":[],"categories_segments":[],"categories_sizes":[],"default_left":[0,0,0,0,0,0,0,0,0,0,0,0,0,0,0,0,0,0,0,0,0,0,0,0,0,0,0,0,0,0,0,0,0,0,0,0,0,0,0,0,0,0,0,0,0,0,0],"id":29,"left_children":[1,3,5,7,9,11,13,15,17,19,21,23,-1,25,27,29,31,-1,-1,33,35,-1,-1,37,39,41,43,45,-1,-1,-1,-1,-1,-1,-1,-1,-1,-1,-1,-1,-1,-1,-1,-1,-1,-1,-1],"loss_changes":[9.22362E13,6.946193E13,8.840987E13,3.5908603E13,1.0929583E14,1.076158E14,7.012831E13,2.8173484E13,5.0404356E12,5.3757363E13,1.1177569E13,4.254875E13,0E0,6.5698743E13,1.6316299E14,2.2926108E13,4.152458E13,0E0,0E0,1.1689824E14,2.0187655E13,0E0,0E0,2.5596604E13,3.0900748E13,5.2187124E13,1.37753795E14,1.0918004E13,0E0,0E0,0E0,0E0,0E0,0E0,0E0,0E0,0E0,0E0,0E0,0E0,0E0,0E0,0E0,0E0,0E0,0E0,0E0],"parents":[2147483647,0,0,1,1,2,2,3,3,4,4,5,5,6,6,7,7,8,8,9,9,10,10,11,11,13,13,14,14,15,15,16,16,19,19,20,20,23,23,24,24,25,25,26,26,27,27],"right_children":[2,4,6,8,10,12,14,16,18,20,22,24,-1,26,28,30,32,-1,-1,34,36,-1,-1,38,40,42,44,46,-1,-1,-1,-1,-1,-1,-1,-1,-1,-1,-1,-1,-1,-1,-1,-1,-1,-1,-1],"split_conditions":[1.8315324E-4,8.210144E-3,2.0961966E-6,3.3094052E-2,4.0660636E-4,1.5415631E-5,4.8788182E-2,5.680287E-3,7.5129916E-5,1.8056246E-6,1.5589801E-4,1.313813E-7,1.12387266E5,1.6201366E-2,9.8235316E-5,1.8538116E-3,2.8901588E-6,1.5021796E4,6.682957E4,6.4695705E-6,1.2305145E-2,1.0645737E5,2.8803438E4,5.246015E-7,3.9586266E-5,2.3540952E-3,2.0326443E-5,8.38096E-4,1.7972397E5,-5.3820557E3,2.6700914E4,4.973395E4,9.0457294E2,6.0226387E3,8.4020305E4,-6.8743706E3,4.6259258E4,1.5203821E4,8.034029E4,-9.011456E3,4.018144E4,1.5008677E3,3.137112E4,1.0590462E4,1.2925886E5,3.3840055E4,-1.2931495E4],"split_indices":[982,639,469,593,214,736,487,439,512,43,768,477,0,575,340,495,644,0,0,723,793,0,0,519,776,540,120,515,0,0,0,0,0,0,0,0,0,0,0,0,0,0,0,0,0,0,0],"split_type":[0,0,0,0,0,0,0,0,0,0,0,0,0,0,0,0,0,0,0,0,0,0,0,0,0,0,0,0,0,0,0,0,0,0,0,0,0,0,0,0,0,0,0,0,0,0,0],"sum_hessian":[2.435E3,1.403E3,1.032E3,1.288E3,1.15E2,3.9E1,9.93E2,1.284E3,4E0,1.09E2,6E0,3.4E1,5E0,9.84E2,9E0,1.245E3,3.9E1,2E0,2E0,4.3E1,6.6E1,4E0,2E0,1E1,2.4E1,9.61E2,2.3E1,7E0,2E0,1.237E3,8E0,8E0,3.1E1,3.4E1,9E0,6.4E1,2E0,5E0,5E0,1.8E1,6E0,9.38E2,2.3E1,1.9E1,4E0,2E0,5E0],"tree_param":{"num_deleted":"0","num_feature":"1000","num_nodes":"47","size_leaf_vector":"1"}},{"base_weights":[-1.0565636E4,-1.3754756E5,2.3876544E5,-1.5989447E5,1.647026E6,6.068913E4,8.5396025E5,-1.4662493E3,-3.161452E5,-1.4144189E5,1.7672516E5,-1.6026303E5,4.2930512E5,6.833277E5,5.80217E6,-1.2219855E5,4.0903172E5,-3.3320372E5,1.6663779E6,-5.2174934E5,3.614485E4,-1.9500886E5,2.6167105E6,2.3972035E6,2.5817673E5,3.1186128E6,3.5738866E5,3.0532986E4,1.5116536E5,-2.8378318E3,4.5938312E4,3.0073398E4,-1.9489486E3,-7.049203E3,2.4273492E4,5.0465355E4,-6.3446255E3,-1.21196045E4,-2.7723833E3,5.5108906E3,-7.326636E3,6.838856E4,1.8835123E4,2.3235369E3,7.436242E4,1.7956981E3,5.1295445E4,9.5571836E4,-3.5235576E3,-3.1970017E3,2.8495617E4],"categories":[],"categories_nodes":[],"categories_segments":[],"categories_sizes":[],"default_left":[0,0,0,0,0,0,0,0,0,0,0,0,0,0,0,0,0,0,0,0,0,0,0,0,0,0,0,0,0,0,0,0,0,0,0,0,0,0,0,0,0,0,0,0,0,0,0,0,0,0,0],"id":30,"left_children":[1,3,5,7,9,11,13,15,17,19,-1,21,23,25,27,29,31,33,35,37,-1,39,41,43,45,47,49,-1,-1,-1,-1,-1,-1,-1,-1,-1,-1,-1,-1,-1,-1,-1,-1,-1,-1,-1,-1,-1,-1,-1,-1],"loss_changes":[7.69363E13,6.4469657E13,8.978049E13,3.9383986E13,2.5840406E14,5.1950217E13,1.5139114E14,3.925223E13,2.7644188E13,1.3541615E13,0E0,3.9009103E13,7.986753E13,1.409675E14,3.3510576E13,2.9481431E13,9.994058E13,2.410875E13,1.2698603E13,4.000708E11,0E0,3.194449E13,3.502313E12,5.6815966E13,8.560874E13,1.1569684E14,8.801112E13,0E0,0E0,0E0,0E0,0E0,0E0,0E0,0E0,0E0,0E0,0E0,0E0,0E0,0E0,0E0,0E0,0E0,0E0,0E0,0E0,0E0,0E0,0E0,0E0],"parents":[2147483647,0,0,1,1,2,2,3,3,4,4,5,5,6,6,7,7,8,8,9,9,11,11,12,12,13,13,14,14,15,15,16,16,17,17,18,18,19,19,21,21,22,22,23,23,24,24,25,25,26,26],"right_children":[2,4,6,8,10,12,14,16,18,20,-1,22,24,26,28,30,32,34,36,38,-1,40,42,44,46,48,50,-1,-1,-1,-1,-1,-1,-1,-1,-1,-1,-1,-1,-1,-1,-1,-1,-1,-1,-1,-1,-1,-1,-1,-1],"split_conditions":[1.5324531E-3,4.008589E-2,1.4252265E-3,6.8696445E-6,2.2717795E-4,1.8903155E-4,5.1387365E-4,8.037136E-4,2.930909E-2,8.163823E-3,1.7672516E5,8.36691E-3,1.6584812E-5,1.922827E-6,1.1058734E-4,1.2838757E-2,7.729731E-6,1.9286728E-2,8.431281E-6,5.5258702E-3,3.614485E4,1.716775E-6,2.6170732E-4,5.3491174E-5,2.6353993E-4,1.04551955E-5,3.4182085E-5,3.0532986E4,1.5116536E5,-2.8378318E3,4.5938312E4,3.0073398E4,-1.9489486E3,-7.049203E3,2.4273492E4,5.0465355E4,-6.3446255E3,-1.21196045E4,-2.7723833E3,5.5108906E3,-7.326636E3,6.838856E4,1.8835123E4,2.3235369E3,7.436242E4,1.7956981E3,5.1295445E4,9.5571836E4,-3.5235576E3,-3.1970017E3,2.8495617E4],"split_indices":[655,487,838,418,944,434,884,834,971,617,0,698,602,884,512,929,777,452,257,543,0,371,257,516,996,781,497,0,0,0,0,0,0,0,0,0,0,0,0,0,0,0,0,0,0,0,0,0,0,0,0],"split_type":[0,0,0,0,0,0,0,0,0,0,0,0,0,0,0,0,0,0,0,0,0,0,0,0,0,0,0,0,0,0,0,0,0,0,0,0,0,0,0,0,0,0,0,0,0,0,0,0,0,0,0],"sum_hessian":[2.428E3,1.609E3,8.19E2,1.59E3,1.9E1,6.36E2,1.83E2,7.9E2,8E2,1.6E1,3E0,3.98E2,2.38E2,1.78E2,5E0,6.11E2,1.79E2,7.94E2,6E0,1.4E1,2E0,3.94E2,4E0,1.8E1,2.2E2,2E1,1.58E2,2E0,3E0,6.07E2,4E0,5.6E1,1.23E2,7.85E2,9E0,4E0,2E0,1.1E1,3E0,1.05E2,2.89E2,2E0,2E0,7E0,1.1E1,2.06E2,1.4E1,1.3E1,7E0,1.07E2,5.1E1],"tree_param":{"num_deleted":"0","num_feature":"1000","num_nodes":"51","size_leaf_vector":"1"}},{"base_weights":[7.839422E3,-1.3251325E5,2.7692344E5,1.04194586E5,-2.4897708E5,2.4095044E5,2.7209948E6,7.742763E4,9.525204E4,-2.6045412E5,2.2523165E6,2.1822603E5,3.9150188E6,9.279826E4,2.8757854E4,1.4441892E4,1.5197172E6,-2.7068306E5,1.9683585E6,-1.0157712E4,8.523493E4,1.9560755E5,3.861393E6,9.896647E4,3.1534152E4,1.5374439E4,-1.0668095E4,-5.19052E3,4.6054736E3,-5.4165094E2,6.757171E4,-5.5502324E3,4.4736953E4,-9.113731E3,7.472568E4,1.2087903E4,-3.19766E2,2.0028129E4,1.0868497E5],"categories":[],"categories_nodes":[],"categories_segments":[],"categories_sizes":[],"default_left":[0,0,0,0,0,0,0,0,0,0,0,0,0,0,0,0,0,0,0,0,0,0,0,0,0,0,0,0,0,0,0,0,0,0,0,0,0,0,0],"id":31,"left_children":[1,3,5,7,9,11,13,15,-1,17,19,21,23,-1,25,27,29,31,33,-1,-1,35,37,-1,-1,-1,-1,-1,-1,-1,-1,-1,-1,-1,-1,-1,-1,-1,-1],"loss_changes":[9.188521E13,4.4107016E13,7.267014E13,6.5468296E13,3.1361038E13,6.7858764E13,6.1860766E13,4.7761836E13,0E0,2.4881517E13,2.9896642E13,6.673266E13,4.278878E12,0E0,2.9059208E12,2.992091E13,6.3348037E13,1.8839388E13,2.3130232E13,0E0,0E0,7.050534E13,1.7049846E13,0E0,0E0,0E0,0E0,0E0,0E0,0E0,0E0,0E0,0E0,0E0,0E0,0E0,0E0,0E0,0E0],"parents":[2147483647,0,0,1,1,2,2,3,3,4,4,5,5,6,6,7,7,9,9,10,10,11,11,12,12,14,14,15,15,16,16,17,17,18,18,21,21,22,22],"right_children":[2,4,6,8,10,12,14,16,-1,18,20,22,24,-1,26,28,30,32,34,-1,-1,36,38,-1,-1,-1,-1,-1,-1,-1,-1,-1,-1,-1,-1,-1,-1,-1,-1],"split_conditions":[9.0128544E-4,6.219061E-7,1.0855527E-3,3.6006165E-3,1.9099721E-1,3.6950193E-3,2.2543185E-4,8.008278E-3,9.525204E4,8.755187E-2,2.3603066E-5,1.997184E-3,7.880884E-5,9.279826E4,6.2113713E-6,9.1268375E-6,1.273518E-6,2.930909E-2,1.139899E-4,-1.0157712E4,8.523493E4,1.3432557E-4,1.3915364E-3,9.896647E4,3.1534152E4,1.5374439E4,-1.0668095E4,-5.19052E3,4.6054736E3,-5.4165094E2,6.757171E4,-5.5502324E3,4.4736953E4,-9.113731E3,7.472568E4,1.2087903E4,-3.19766E2,2.0028129E4,1.0868497E5],"split_indices":[697,595,506,622,906,436,431,529,0,703,512,273,0,0,1,439,47,971,257,0,0,796,257,0,0,0,0,0,0,0,0,0,0,0,0,0,0,0,0],"split_type":[0,0,0,0,0,0,0,0,0,0,0,0,0,0,0,0,0,0,0,0,0,0,0,0,0,0,0,0,0,0,0,0,0,0,0,0,0,0,0],"sum_hessian":[2.431E3,1.598E3,8.33E2,5.27E2,1.071E3,8.22E2,1.1E1,5.25E2,2E0,1.067E3,4E0,8.18E2,4E0,6E0,5E0,5.04E2,2.1E1,1.063E3,4E0,2E0,2E0,8.14E2,4E0,2E0,2E0,2E0,3E0,2.22E2,2.82E2,1.2E1,9E0,1.061E3,2E0,2E0,2E0,2.77E2,5.37E2,2E0,2E0],"tree_param":{"num_deleted":"0","num_feature":"1000","num_nodes":"39","size_leaf_vector":"1"}},{"base_weights":[1.1293001E4,-1.7565125E5,1.8767736E5,-2.0431031E5,1.4253384E6,1.7551212E5,1.0436593E5,-1.4391769E3,-3.736863E5,3.1172294E5,1.2160546E5,6.913221E4,1.5699756E5,-1.1647679E5,9.40704E5,-4.0762053E5,1.4212405E5,-7.4991494E5,2.0871416E6,1.4596975E5,9.3844766E4,-3.2026033E3,2.1380324E4,8.443882E4,9.618172E3,-8.444238E3,1.43889375E4,-1.2660525E3,4.0135793E4,-1.6967064E4,-3.4363113E3,6.0061637E4,1.2988317E4,2.458989E3,4.060083E4],"categories":[],"categories_nodes":[],"categories_segments":[],"categories_sizes":[],"default_left":[0,0,0,0,0,0,0,0,0,0,0,0,0,0,0,0,0,0,0,0,0,0,0,0,0,0,0,0,0,0,0,0,0,0,0],"id":32,"left_children":[1,3,5,7,9,11,-1,13,15,17,-1,-1,19,21,23,25,27,29,31,33,-1,-1,-1,-1,-1,-1,-1,-1,-1,-1,-1,-1,-1,-1,-1],"loss_changes":[8.062152E13,5.4754177E13,7.607204E13,4.009933E13,1.0696458E14,7.575695E13,0E0,5.776874E13,1.1190244E13,3.549251E13,0E0,0E0,6.183236E13,2.4752807E13,8.547411E13,1.0121703E13,1.5449118E13,5.371257E11,7.267848E12,5.3878528E13,0E0,0E0,0E0,0E0,0E0,0E0,0E0,0E0,0E0,0E0,0E0,0E0,0E0,0E0,0E0],"parents":[2147483647,0,0,1,1,2,2,3,3,4,4,5,5,7,7,8,8,9,9,12,12,13,13,14,14,15,15,16,16,17,17,18,18,19,19],"right_children":[2,4,6,8,10,12,-1,14,16,18,-1,-1,20,22,24,26,28,30,32,34,-1,-1,-1,-1,-1,-1,-1,-1,-1,-1,-1,-1,-1,-1,-1],"split_conditions":[3.9295256E-4,2.5451228E-1,1.5204892E-2,5.4091754E-7,6.721948E-4,1.04191095E-7,1.0436593E5,4.1812522E-4,1.0009866E-4,9.445347E-4,1.2160546E5,6.913221E4,4.0466418E-3,1.0956133E-4,7.3369985E-5,2.7739204E-2,1.2734121E-3,1.1218948E-5,1.8031886E-4,4.8788182E-2,9.3844766E4,-3.2026033E3,2.1380324E4,8.443882E4,9.618172E3,-8.444238E3,1.43889375E4,-1.2660525E3,4.0135793E4,-1.6967064E4,-3.4363113E3,6.0061637E4,1.2988317E4,2.458989E3,4.060083E4],"split_indices":[834,445,814,392,543,443,0,552,374,435,0,0,273,62,585,465,525,5,585,487,0,0,0,0,0,0,0,0,0,0,0,0,0,0,0],"split_type":[0,0,0,0,0,0,0,0,0,0,0,0,0,0,0,0,0,0,0,0,0,0,0,0,0,0,0,0,0,0,0,0,0,0,0],"sum_hessian":[2.443E3,1.186E3,1.257E3,1.166E3,2E1,1.255E3,2E0,5.31E2,6.35E2,1.7E1,3E0,6E0,1.249E3,4.74E2,5.7E1,5.96E2,3.9E1,1.1E1,6E0,1.247E3,2E0,4.58E2,1.6E1,6E0,5.1E1,5.89E2,7E0,3.6E1,3E0,9E0,2E0,3E0,3E0,1.233E3,1.4E1],"tree_param":{"num_deleted":"0","num_feature":"1000","num_nodes":"35","size_leaf_vector":"1"}},{"base_weights":[3.9184863E3,-8.34637E4,3.9061E5,-1.001737E5,1.9812601E6,3.4193544E5,3.9274262E6,-1.0990796E5,3.107738E6,4.8726012E5,1.268289E5,1.7821214E6,2.1433488E5,1.1786448E5,2.9424432E4,-2.3213403E5,7.0952625E4,1.1782986E4,8.43949E4,1.4175212E6,-1.0252193E4,6.591823E5,5.077696E6,1.0444476E5,1.7058951E6,-5.0016006E3,2.3423322E4,4.286349E4,4.02476E2,1.4065967E4,3.5547277E4,4.548084E4,-1.0389883E4,1.9813357E4,1.2207789E5,3.3347217E2,3.9759242E4,1.1115469E4,8.144354E4],"categories":[],"categories_nodes":[],"categories_segments":[],"categories_sizes":[],"default_left":[0,0,0,0,0,0,0,0,0,0,0,0,0,0,0,0,0,0,0,0,0,0,0,0,0,0,0,0,0,0,0,0,0,0,0,0,0,0,0],"id":33,"left_children":[1,3,5,7,9,11,13,15,17,19,-1,21,23,-1,-1,25,27,-1,-1,29,-1,31,33,35,37,-1,-1,-1,-1,-1,-1,-1,-1,-1,-1,-1,-1,-1,-1],"loss_changes":[8.231113E13,6.875302E13,7.595379E13,6.1920535E13,1.0113593E14,8.1211255E13,2.0300171E13,4.3498733E13,1.4318075E13,1.2818456E13,0E0,1.2987915E14,6.6860083E13,0E0,0E0,2.9858474E13,8.358777E13,0E0,0E0,5.490365E11,0E0,5.447647E13,3.1699996E13,6.3118516E13,7.393914E13,0E0,0E0,0E0,0E0,0E0,0E0,0E0,0E0,0E0,0E0,0E0,0E0,0E0,0E0],"parents":[2147483647,0,0,1,1,2,2,3,3,4,4,5,5,6,6,7,7,8,8,9,9,11,11,12,12,15,15,16,16,19,19,21,21,22,22,23,23,24,24],"right_children":[2,4,6,8,10,12,14,16,18,20,-1,22,24,-1,-1,26,28,-1,-1,30,-1,32,34,36,38,-1,-1,-1,-1,-1,-1,-1,-1,-1,-1,-1,-1,-1,-1],"split_conditions":[6.82873E-3,3.3094052E-2,4.742643E-3,2.5157046E-1,6.254828E-5,2.644837E-6,2.034405E-3,5.100219E-4,8.218457E-6,1.079597E-5,1.268289E5,1.0386061E-7,3.4335544E-4,1.1786448E5,2.9424432E4,6.850024E-3,6.727302E-8,1.1782986E4,8.43949E4,1.1247752E-5,-1.0252193E4,4.784871E-6,1.0671367E-7,2.2327742E-3,1.5247951E-5,-5.0016006E3,2.3423322E4,4.286349E4,4.02476E2,1.4065967E4,3.5547277E4,4.548084E4,-1.0389883E4,1.9813357E4,1.2207789E5,3.3347217E2,3.9759242E4,1.1115469E4,8.144354E4],"split_indices":[655,593,562,459,669,469,514,834,568,152,0,289,495,0,0,857,679,0,0,522,0,843,14,693,85,0,0,0,0,0,0,0,0,0,0,0,0,0,0],"split_type":[0,0,0,0,0,0,0,0,0,0,0,0,0,0,0,0,0,0,0,0,0,0,0,0,0,0,0,0,0,0,0,0,0,0,0,0,0,0,0],"sum_hessian":[2.434E3,1.986E3,4.48E2,1.971E3,1.5E1,4.43E2,5E0,1.966E3,5E0,1.2E1,3E0,3.5E1,4.08E2,2E0,3E0,1.173E3,7.93E2,2E0,3E0,6E0,6E0,2.7E1,8E0,3.81E2,2.7E1,1.159E3,1.4E1,1.8E1,7.75E2,3E0,3E0,1.1E1,1.6E1,2E0,6E0,3.65E2,1.6E1,1.9E1,8E0],"tree_param":{"num_deleted":"0","num_feature":"1000","num_nodes":"39","size_leaf_vector":"1"}},{"base_weights":[2.4688716E3,-1.6344864E5,1.5935127E5,-1.889148E5,1.8287148E6,1.4725239E5,1.02706625E5,4.687178E3,-3.305327E5,3.0632638E5,1.18774016E5,6.7326125E4,1.28976305E5,-1.338483E5,7.5667606E5,-3.457211E5,9.7711625E5,-3.939337E5,3.6106598E4,9.795533E4,1.5748429E6,-3.4653499E3,2.6808273E4,8.83033E4,8.825852E3,-7.2100728E3,1.8341129E4,-6.828045E3,3.6730152E4,9.677937E3,-1.4277411E4,1.586729E3,5.172277E4,1.1045592E4,1.4121742E5],"categories":[],"categories_nodes":[],"categories_segments":[],"categories_sizes":[],"default_left":[0,0,0,0,0,0,0,0,0,0,0,0,0,0,0,0,0,0,0,0,0,0,0,0,0,0,0,0,0,0,0,0,0,0,0],"id":34,"left_children":[1,3,5,7,9,11,-1,13,15,17,-1,-1,19,21,23,25,27,29,-1,31,33,-1,-1,-1,-1,-1,-1,-1,-1,-1,-1,-1,-1,-1,-1],"loss_changes":[6.325179E13,6.0260832E13,7.4438284E13,3.199778E13,9.2035755E13,7.2929E13,0E0,5.1564786E13,1.3724182E13,1.3307489E13,0E0,0E0,5.550731E13,2.4524001E13,8.689629E13,1.2781571E13,9.691976E12,2.8730925E12,0E0,5.6128675E13,1.4195551E14,0E0,0E0,0E0,0E0,0E0,0E0,0E0,0E0,0E0,0E0,0E0,0E0,0E0,0E0],"parents":[2147483647,0,0,1,1,2,2,3,3,4,4,5,5,7,7,8,8,9,9,12,12,13,13,14,14,15,15,16,16,17,17,19,19,20,20],"right_children":[2,4,6,8,10,12,-1,14,16,18,-1,-1,20,22,24,26,28,30,-1,32,34,-1,-1,-1,-1,-1,-1,-1,-1,-1,-1,-1,-1,-1,-1],"split_conditions":[3.9295256E-4,2.5451228E-1,1.5204892E-2,4.5684962E-7,5.701659E-4,1.04191095E-7,1.02706625E5,2.0452766E-4,3.4622867E-2,1.03597495E-5,1.18774016E5,6.7326125E4,4.656549E-4,1.0956133E-4,3.1829273E-5,2.1730231E-4,2.0958523E-5,6.957371E-7,3.6106598E4,9.465445E-3,6.45017E-4,-3.4653499E3,2.6808273E4,8.83033E4,8.825852E3,-7.2100728E3,1.8341129E4,-6.828045E3,3.6730152E4,9.677937E3,-1.4277411E4,1.586729E3,5.172277E4,1.1045592E4,1.4121742E5],"split_indices":[834,445,814,392,543,443,0,552,747,450,0,0,276,62,457,140,519,256,0,509,877,0,0,0,0,0,0,0,0,0,0,0,0,0,0],"split_type":[0,0,0,0,0,0,0,0,0,0,0,0,0,0,0,0,0,0,0,0,0,0,0,0,0,0,0,0,0,0,0,0,0,0,0],"sum_hessian":[2.428E3,1.18E3,1.248E3,1.166E3,1.4E1,1.246E3,2E0,4.93E2,6.73E2,1.1E1,3E0,6E0,1.24E3,4.17E2,7.6E1,6.66E2,7E0,8E0,3E0,1.215E3,2.5E1,4.07E2,1E1,5E0,7.1E1,6.59E2,7E0,3E0,4E0,2E0,6E0,1.207E3,8E0,2.2E1,3E0],"tree_param":{"num_deleted":"0","num_feature":"1000","num_nodes":"35","size_leaf_vector":"1"}},{"base_weights":[3.5999746E3,-1.5740183E5,2.0596902E5,-2.076279E5,5.59383E5,3.045536E6,1.7921352E5,-2.2262295E5,1.5247718E6,3.2906422E5,8.7258516E4,2.6303834E4,7.9598E4,1.5606644E5,3.2295865E6,-2.301942E5,4.4132453E4,-4.887572E5,1.03412734E5,1.1194016E6,-3.9833347E5,1.2991113E5,2.4338292E6,1.04259E5,-1.1402897E3,-4.7743164E3,3.8924992E4,-1.1351194E4,-3.364661E3,2.710943E3,6.9715086E4,-1.0971665E4,2.5577455E4,2.347039E3,8.956268E4,-9.493882E3,1.3201402E5],"categories":[],"categories_nodes":[],"categories_segments":[],"categories_sizes":[],"default_left":[0,0,0,0,0,0,0,0,0,0,0,0,0,0,0,0,0,0,0,0,0,0,0,0,0,0,0,0,0,0,0,0,0,0,0,0,0],"id":35,"left_children":[1,3,5,7,9,11,13,15,17,19,-1,-1,-1,21,23,25,-1,27,-1,29,31,33,35,-1,-1,-1,-1,-1,-1,-1,-1,-1,-1,-1,-1,-1,-1],"loss_changes":[7.927131E13,4.8897896E13,8.135424E13,3.3252828E13,7.653076E13,1.0933385E13,7.49751E13,2.362726E13,8.3278795E13,4.9311514E13,0E0,0E0,0E0,6.2953072E13,5.244541E13,2.3722325E13,0E0,1.0658277E11,0E0,9.498154E13,1.2041564E13,5.6869704E13,1.4856664E14,0E0,0E0,0E0,0E0,0E0,0E0,0E0,0E0,0E0,0E0,0E0,0E0,0E0,0E0],"parents":[2147483647,0,0,1,1,2,2,3,3,4,4,5,5,6,6,7,7,8,8,9,9,13,13,14,14,15,15,17,17,19,19,20,20,21,21,22,22],"right_children":[2,4,6,8,10,12,14,16,18,20,-1,-1,-1,22,24,26,-1,28,-1,30,32,34,36,-1,-1,-1,-1,-1,-1,-1,-1,-1,-1,-1,-1,-1,-1],"split_conditions":[1.5435E-4,8.481867E-3,1.069317E-7,1.0742075E-3,2.085034E-4,9.156216E-6,1.3996455E-3,2.930909E-2,1.3306958E-4,3.0671642E-6,8.7258516E4,2.6303834E4,7.9598E4,4.8788182E-2,5.4754717E-5,2.6437765E-2,4.4132453E4,3.453962E-5,1.03412734E5,8.59435E-7,1.9339867E-2,5.983668E-4,2.8349494E-4,1.04259E5,-1.1402897E3,-4.7743164E3,3.8924992E4,-1.1351194E4,-3.364661E3,2.710943E3,6.9715086E4,-1.0971665E4,2.5577455E4,2.347039E3,8.956268E4,-9.493882E3,1.3201402E5],"split_indices":[982,445,687,495,494,516,273,971,281,365,0,0,0,487,9,598,0,517,0,900,601,98,572,0,0,0,0,0,0,0,0,0,0,0,0,0,0],"split_type":[0,0,0,0,0,0,0,0,0,0,0,0,0,0,0,0,0,0,0,0,0,0,0,0,0,0,0,0,0,0,0,0,0,0,0,0,0],"sum_hessian":[2.431E3,1.354E3,1.077E3,1.266E3,8.8E1,9E0,1.068E3,1.256E3,1E1,8.4E1,4E0,4E0,5E0,1.061E3,7E0,1.253E3,3E0,7E0,3E0,4E1,4.4E1,1.05E3,1.1E1,4E0,3E0,1.249E3,4E0,5E0,2E0,2.9E1,1.1E1,4.1E1,3E0,1.048E3,2E0,7E0,4E0],"tree_param":{"num_deleted":"0","num_feature":"1000","num_nodes":"37","size_leaf_vector":"1"}},{"base_weights":[3.9376936E3,-1.086047E5,3.1099175E5,-1.2600248E5,1.6907779E6,2.3070073E5,3.1083602E6,-1.3546678E5,1.7219695E6,1.1593191E5,7.568958E5,2.087796E5,9.499864E4,1.2823689E6,1.8357475E5,1.7734252E4,-2.4018112E5,-1.1074953E4,9.4101055E4,1.6058624E6,-1.8668275E5,2.240651E6,1.6563031E5,2.503916E6,1.8979111E5,-2.7699878E2,4.4537086E4,-5.3227944E3,2.1836457E4,6.5751953E3,3.95354E4,-9.912928E3,4.923849E3,1.5278953E4,6.794523E4,2.4040469E3,4.2273836E4,6.0930094E4,2.6706969E4,-6.4984155E3,1.8288223E4],"categories":[],"categories_nodes":[],"categories_segments":[],"categories_sizes":[],"default_left":[0,0,0,0,0,0,0,0,0,0,0,0,0,0,0,0,0,0,0,0,0,0,0,0,0,0,0,0,0,0,0,0,0,0,0,0,0,0,0,0,0],"id":36,"left_children":[1,3,5,7,9,11,13,15,17,-1,19,21,-1,23,-1,25,27,-1,-1,29,31,33,35,37,39,-1,-1,-1,-1,-1,-1,-1,-1,-1,-1,-1,-1,-1,-1,-1,-1],"loss_changes":[8.348796E13,5.556073E13,1.4482598E14,3.0875343E13,6.0796525E13,6.1519383E13,1.8774968E14,2.798211E13,6.3703307E13,0E0,1.2315786E13,5.477571E13,0E0,1.954431E13,0E0,4.9500094E13,3.6112303E13,0E0,0E0,3.1396148E12,1.1919659E12,1.9608292E13,5.4348256E13,3.7021863E11,3.6538462E12,0E0,0E0,0E0,0E0,0E0,0E0,0E0,0E0,0E0,0E0,0E0,0E0,0E0,0E0,0E0,0E0],"parents":[2147483647,0,0,1,1,2,2,3,3,4,4,5,5,6,6,7,7,8,8,10,10,11,11,13,13,15,15,16,16,19,19,20,20,21,21,22,22,23,23,24,24],"right_children":[2,4,6,8,10,12,14,16,18,-1,20,22,-1,24,-1,26,28,-1,-1,30,32,34,36,38,40,-1,-1,-1,-1,-1,-1,-1,-1,-1,-1,-1,-1,-1,-1,-1,-1],"split_conditions":[9.2971494E-4,7.885468E-2,5.8233656E-4,3.3253264E-2,1.2997981E-5,3.6950193E-3,2.1459064E-5,6.4413615E-7,1.8187861E-4,1.1593191E5,2.9936897E-5,7.766956E-8,9.499864E4,6.4640044E-6,1.8357475E5,1.0742075E-3,2.0077096E-2,-1.1074953E4,9.4101055E4,2.0702493E-7,3.1364868E-6,2.4657793E-6,2.2852549E-4,1.6692527E-4,2.0322477E-4,-2.7699878E2,4.4537086E4,-5.3227944E3,2.1836457E4,6.5751953E3,3.95354E4,-9.912928E3,4.923849E3,1.5278953E4,6.794523E4,2.4040469E3,4.2273836E4,6.0930094E4,2.6706969E4,-6.4984155E3,1.8288223E4],"split_indices":[639,982,687,840,258,436,132,392,519,0,807,724,0,864,0,495,641,0,0,1,825,785,370,257,777,0,0,0,0,0,0,0,0,0,0,0,0,0,0,0,0],"split_type":[0,0,0,0,0,0,0,0,0,0,0,0,0,0,0,0,0,0,0,0,0,0,0,0,0,0,0,0,0,0,0,0,0,0,0,0,0,0,0,0,0],"sum_hessian":[2.414E3,1.767E3,6.47E2,1.751E3,1.6E1,6.3E2,1.7E1,1.743E3,8E0,2E0,1.4E1,6.28E2,2E0,1.4E1,3E0,7.08E2,1.035E3,5E0,3E0,7E0,7E0,1.2E1,6.16E2,6E0,8E0,6.99E2,9E0,1.016E3,1.9E1,2E0,5E0,4E0,3E0,6E0,6E0,6.03E2,1.3E1,3E0,3E0,5E0,3E0],"tree_param":{"num_deleted":"0","num_feature":"1000","num_nodes":"41","size_leaf_vector":"1"}},{"base_weights":[1.4822292E3,-4.136641E4,7.308503E5,-1.3504948E5,2.07974E5,4.896782E5,3.162058E6,-1.4414756E5,7.3852266E4,5.50961E5,-2.6436832E4,1.6165111E6,-4.6357086E4,1.1517594E5,4.845592E5,-1.540706E5,3.187066E6,4.3477547E5,4.0838418E6,-2.6536416E5,4.692603E5,1.0974958E6,1.006024E5,-1.7741305E5,1.708782E6,-1.1638214E4,2.8597785E4,-3.421909E3,2.37214E4,1.13849414E5,-7.613885E3,6.040011E3,7.129237E4,4.2093237E3,1.2731548E5,-6.120942E3,2.4161422E4,1.7323637E4,-9.319933E3,1.2186941E3,3.66999E4,1.64407E4,-8.414031E3,5.758125E4,-8.423722E3],"categories":[],"categories_nodes":[],"categories_segments":[],"categories_sizes":[],"default_left":[0,0,0,0,0,0,0,0,0,0,0,0,0,0,0,0,0,0,0,0,0,0,0,0,0,0,0,0,0,0,0,0,0,0,0,0,0,0,0,0,0,0,0,0,0],"id":37,"left_children":[1,3,5,7,9,11,13,15,-1,17,19,21,23,-1,25,27,29,31,33,35,37,39,-1,41,43,-1,-1,-1,-1,-1,-1,-1,-1,-1,-1,-1,-1,-1,-1,-1,-1,-1,-1,-1,-1],"loss_changes":[7.603614E13,5.370702E13,7.760744E13,5.8723842E13,5.050568E13,7.4973696E13,8.064271E13,5.562799E13,0E0,1.0289418E14,4.441944E13,6.5348095E13,1.9854982E13,0E0,7.889231E12,3.816829E13,4.686051E13,1.0198351E14,6.9370466E13,1.5535473E13,4.5692916E13,2.7408846E13,0E0,1.9798174E13,1.616858E13,0E0,0E0,0E0,0E0,0E0,0E0,0E0,0E0,0E0,0E0,0E0,0E0,0E0,0E0,0E0,0E0,0E0,0E0,0E0,0E0],"parents":[2147483647,0,0,1,1,2,2,3,3,4,4,5,5,6,6,7,7,9,9,10,10,11,11,12,12,14,14,15,15,16,16,17,17,18,18,19,19,20,20,21,21,23,23,24,24],"right_children":[2,4,6,8,10,12,14,16,-1,18,20,22,24,-1,26,28,30,32,34,36,38,40,-1,42,44,-1,-1,-1,-1,-1,-1,-1,-1,-1,-1,-1,-1,-1,-1,-1,-1,-1,-1,-1,-1],"split_conditions":[2.5093727E-2,1.6208162E-4,6.781033E-5,3.8983945E-3,3.0459057E-6,1.2597875E-6,1.9246076E-3,3.658707E-4,7.3852266E4,1.1326836E-3,3.176936E-4,1.5536407E-6,2.3730307E-4,1.1517594E5,1.5716998E-4,4.7328636E-2,7.5214586E-5,7.900426E-3,1.2703869E-5,1.20442435E-2,5.786531E-4,9.320193E-8,1.006024E5,1.6739546E-6,1.4603253E-5,-1.1638214E4,2.8597785E4,-3.421909E3,2.37214E4,1.13849414E5,-7.613885E3,6.040011E3,7.129237E4,4.2093237E3,1.2731548E5,-6.120942E3,2.4161422E4,1.7323637E4,-9.319933E3,1.2186941E3,3.66999E4,1.64407E4,-8.414031E3,5.758125E4,-8.423722E3],"split_indices":[578,434,475,106,404,385,697,140,0,604,490,914,159,0,516,424,1,523,256,582,769,94,0,724,512,0,0,0,0,0,0,0,0,0,0,0,0,0,0,0,0,0,0,0,0],"split_type":[0,0,0,0,0,0,0,0,0,0,0,0,0,0,0,0,0,0,0,0,0,0,0,0,0,0,0,0,0,0,0,0,0,0,0,0,0,0,0,0,0,0,0,0,0],"sum_hessian":[2.431E3,2.297E3,1.34E2,1.67E3,6.27E2,1.23E2,1.1E1,1.667E3,3E0,2.54E2,3.73E2,3.9E1,8.4E1,5E0,6E0,1.663E3,4E0,2.47E2,7E0,2.52E2,1.21E2,3.5E1,4E0,7.9E1,5E0,3E0,3E0,1.643E3,2E1,2E0,2E0,2.38E2,9E0,3E0,4E0,2.46E2,6E0,8.5E1,3.6E1,1.5E1,2E1,1.5E1,6.4E1,3E0,2E0],"tree_param":{"num_deleted":"0","num_feature":"1000","num_nodes":"45","size_leaf_vector":"1"}},{"base_weights":[1.4350297E4,-4.8381855E4,5.1777494E5,-8.267218E4,6.0866244E5,1.8948678E6,3.384901E5,-1.0687189E5,8.961655E5,4.002838E5,4.821205E6,5.614509E5,3.9593235E6,-1.055227E5,1.0979898E6,-1.375036E5,4.5280988E5,4.0799347E5,1.6816394E5,2.5834632E6,1.142791E5,4.0620375E4,1.2008646E5,2.375558E6,-2.0162208E5,9.909062E4,4.2767215E4,1.6131015E6,-2.2413881E5,3.5469982E6,5.1263172E5,-1.5961344E3,-8.562047E3,4.6281016E3,8.134843E4,-3.106544E3,5.1282895E4,1.2076422E4,7.8224664E4,1.226483E2,6.713271E4,6.0112043E4,2.6182705E4,1.2981138E4,-1.1399301E4,-1.4093101E4,6.5514297E4,-8.2478125E3,1.9272838E4,2.2270744E4,1.3728588E5,6.059831E4,1.2993793E3],"categories":[],"categories_nodes":[],"categories_segments":[],"categories_sizes":[],